  7  14 -15   4  16 -11   4 -19  -8   0  -5  -9  -4 -13   3  -8 -20   9  12   8  19   4 -20  -2 -14  16 -19 -24  -6   7 -14   9 -21   3 -17  -2  -9  17 -13  -7   6   2  -9  -9  -4 -29  -2  16 -10  14  18   1 -27   0  11  -5  -1  -9 -16  -6   5   8  -9  -3
  3  -7  -3   7  18   8  -3  -6   1   5  16 -22   2   9  19   3 -11  19 -14  -3 -26   5  12   5   0  -2   4   1  10 -11  -8  -3 -14   9  14  10  -1 -14   5   1   3  -2 -18   9   7   8   7  -9 -21  -9  11  17  13  14  -9  -1   1  14  11   9   5   3   3  -9
-21  -6   4  13   7   5   0  19  11  15   8  -5 -12  16   9 -10   8   4   8 -12  -1 -19  13  -2 -17 -16  -9   3   9  -5 -12   7   0  13  14   2  -6 -15   0  -4 -13  -4  -2   5   6   7 -31  14  -8   3 -10 -14  13  -5 -20  -4   5  -8   9  -5   6  -4  14   8
 17 -19  10 -10 -15  26 -13   3 -31  -1   3 -12  11  15 -12   0  -2  11 -11   4  14  -9 -23  -6   8  18 -14  13 -14   5 -18 -11  13   2  -1  11 -13  10  -9  -2   0  -1  16  -6  -3  -3   8   1  12  -3 -25 -19   5  -8  -6   6 -27  -4  -6   7  -8  -5 -32   7
 -7  -3  10  10   0  -8  -4  -2   7 -23  10   3   6  -6   3 -17  -2  12 -20  21   1   9  -2  -9  21   2  -9   2   7   1  -1  -4   0  11   0  17  -3  13 -17  12 -15  10 -12   7   9  17 -10   2  -2  17   2 -13 -29 -14   3   6   4  13   2 -17  -2 -28  -1 -10
-12   0 -18  -4  -8  -5 -12   8 -20  -3  -3 -11  14 -11   5  17  13 -17  15  13  12 -15 -19  17  -5 -17  -7 -11  -9   7  -1 -12   7 -21 -13   0   6 -12   0  -2   5  -5   4  -5  18   0  -1 -19  12   4   1   5  13  -5   9  24 -10   3   3  16  21   0   0  -3
  4  -4   6   5  36  -9   1   5 -23 -21  -6  -3  -7   2  -5 -14  -1   5   0 -13   9   3  10   1  -3  14  19  -8  21  -9 -10   2   1 -10   0  -2  -8   6   3   2 -11 -10  -2   2 -12   6 -12  -6   0  11 -24  16   8  -8  -4  -8  -7 -11  19   5  12  20  11 -21
-14   7   1  15  -2   6  19  -3 -23 -12   8 -11   5  19   3  24  -7   9  -6   9   5  -1  18  -3   8   4  20  -4  19   1  -2 -12  -7   2  -6   7 -11 -24  -9   5   4 -10 -12  -5  -5   3   9   9 -15   9  -5  -5 -15   2   0  -7 -10 -11 -19  -1   4 -19  -7  -9
  1   2 -12 -14  -3 -15   9   3  13  10 -15   0  33  -9   0   2   3 -12   4  -1  -9  12 -27   4  30   8   2 -17  13 -15  -8 -14  14 -11  -8  15  25  -9 -24 -11   5 -23   0  -5 -13  13  -1  -1 -13  10 -11   4 -12  -4  13  -1  12 -31 -21  -1   5  -2 -20   1
 17   2   1  -5  -3  36 -10   0  10   0   5   2  -3   6  -7   2  -8  10 -13  -6   8   2 -23   0  -6  17  -2  13 -18  22  26  -1  17   1  -2   0   5  -5  -4  -7 -17  -2  14   2  -2   4 -20 -12   3  -2  -2   8   7 -12  16 -23 -17   3   8   6  -3 -23 -43 -14
 10  14   1   2 -10   9   4  25  -3   1  -5  17   5 -18  -4  12  -2  17   4   2 -10   5   7   2  -1   7   1   9 -30  13   1   6  -8  -8 -12 -16  10 -16   5  31  -7   6   1  47 -27  11   5   1   0  -2  -3   5  -4   3   3  -2  -9  -5 -14  12  12  -1  18 -13
  1  22   8   7  -5   3 -12  22   2   8   4   4   0  -5 -11  -2  12  -1   6 -10  10  -2  -5  -8   1  -9   0  15   5  -2   4  10 -14   2  -3   0 -11  -5 -12  -4  -9   1  -6  12 -16  -6  10  15 -12 -18   0   6 -10 -21  11   3 -14  15   4  14  28  -8  25  20
 11 -10  -8  -1  -6   8  -2  -1   6   1 -13  -2  -3  -6   4   4 -12   5  -8   5  -4 -23  -1 -23 -12  -6   1   7   3  -3 -12   3  -7  12 -14  16   0  -5   4  14 -11  -3 -18   4 -11 -19   1  -2  14   3  -3 -16 -23  17 -12   6  -7 -16   3  22  -6  21  -5 -10
 14 -10  -2  -3  19  10 -19  -5  14   5   9 -25   5  -2   8 -10 -14   3   8   2  -1 -24  13  -7 -20  -7  -2 -15  25  -3   9  -1 -11   7   2   3   0   3  10 -10  10  -6  29   6  16 -19   0 -14 -16   2  -7 -12   1 -13 -12   6   6   2 -14   6 -11  -8  -6   4
 39  -1  -9   1 -10   7  18   6  -6   7   0 -21   7   7   2  -1   9  13  11   7   6   9  -6   4  15  -1   6   4  -6   1  -7  12   3 -13 -21  -5  10  11 -14   3  10  11  -2  -2   7   3   2  -5 -13  26   6   0  -6   1  -3  13   6   5  17 -10   4  -2  10   1
-27 -18  -7   9 -12  -5 -12  -3  15   2   8  -9  13   2  14   1  20   0 -10  -8  13   2   0 -10   3  12   4  -6  -3  -1  11  11  -7   5   4   9  -7  13  11  -6 -16 -29 -20 -15 -10   9  -8 -13   4  17  -8   6  -6  -2 -14  -8   5  18  14  18  11  -5  -1  -7
  8  -3   7  17 -11   0  -2   9  11 -14 -11  16  18  -7  -2  -9  -9  -7  16  -4   1   7  -6  -6 -11   0   7  -1  14  19 -15  -3  14 -13 -23  24  -7  -8   2  -5  -6  11 -17  13  20  -9  -8  -6   8   3   2   5 -24 -22   9   3  -7  16  -3 -10   5   9  -6 -13
-12  16 -11   5   5  -5 -14  -7   4  12   2  10   1 -15   6 -17   0   0  -8  -7   7   2  -1 -14  -7   9  25  20 -36  -4   1   0 -23   3  -6 -16  -9 -17   0 -15 -17   0   3  14 -15  -1   0 -17 -20  13  -6  -6  -2   8  -5  -5 -16   9 -24  -4 -28  -5  16  -1
-18   0  11  -5   7   1  15   0 -10   3  -5   0  10  -8  18 -13  -9   7  -1   7  -6 -10 -13  -3  -1  -1  -8  11 -17  -7   5   9   0  -6  16 -20   3   0   9  16   3  17  -7   7  -9 -16   2  -6  11  -1   1  -7  13   9   1 -19   0   5 -11  20  12   5   1  -2
 -2   2  -4  -5  14   1  -8  16 -16   2  30  12  -6   8  15  11   4 -10  -6  -9 -12  12   0  -9   5  19 -10   6  -9   7  -3   0  21  -1  -5  -1  10  11   9   7  19  13  -9  -4  -2  -1  -2  15   3  -7   3 -13  -2   4 -10  -5   1 -25  -9 -11  -3  -4   2   9
 -9   3   1   3  -3   7  -8   4  -8   2 -12   1   5  14  -4   8 -21   0 -16 -20  -3  -1  12  10  -5  -2  15 -13 -18  -2   5  11  -8   2  -1  -2 -15  13  10  11  -9   5   9  -7  21  -2  10  -8 -11 -16  -2 -17  20   0   0 -10  10  -5   3  -9  -9 -15   3  -3
  8  -1   7  13   4  -1   4   0  10 -12   4   4  -5  -4  -5 -22  -4   7  11  -1   1   2  -7  -9  12  -8   9 -11   6 -13 -18   8 -14  12  20   4   5 -23 -13   4 -33   9  -6 -15  -3  15 -18   4 -32 -21   8 -12   4   0   6   2 -13  -2  10  -1  21 -25  -9   0
 -2  -4  14  -3  -3   6  17   1   4  23   6   3  -4   7  21   0  -5 -12  -2   2 -23  -4 -13  -5   5  -9  -1 -22   2 -21 -15   9  -7  12   3   8 -11   1  -7   5   6 -10  17  16   6   9  -9 -13  10  13   3  20   0 -23  15   2  -7  15   8  -6   1  14  11  10
 -5   1  14   9   8   7  11 -27   3  -7  -3 -13 -11  10  -4 -10 -21   3 -14 -15  -5  19 -19   3  21  -8  -3   6  17   0  -9  -5  -8 -14  -2  -5  11   8   1   3 -19   3  -1  -8   9   8   2   8   1  18   3 -15   8 -17  -7  -8   1   5  -6  17   3 -10  -1  -4
  1   6  -5 -16 -16 -13 -16  -8  -7   1  12 -22  17   8  10   2   0  10  -5  16   3   3  -9 -11  -8  20   8   4  20   0   4 -16  -7 -16  -2  -3   4  -7   6  -1  31 -15   6   3   8  -1 -14  -5  -4 -41   5  -2   0 -26  -7  13   7   9 -13  -2 -12  -6   3   9
 -9  13   0  15  -8   2   8   5  10  11  -1   4  -8 -10 -10   0  -1   3   0   2  -2  -5 -17   6 -11   2 -22  10  21   5  23   4   0  -5   2 -10  15 -13  -3   0  -5  -1  -9   5 -12   1   0  -5  -6  -8  11   6 -17  23   9  -2 -16   7   2   3  21  -6  -4   3
 -1  -3  -3 -11  -7  -1   5 -19   7   5   7  11 -21  15 -12  12 -10  23  -9 -17  -7  16 -36  -6 -19   5   6   6   2  -9  14   8  14  14   6  -2   1  -4  11  -4   9 -14  17 -20  -1   3   0   5 -12 -11   2  -2  10  -7 -14  -9  11 -12   0   3   4   9   1  -1
  5   1   3  -5 -16  -8  15   9  -7  -3  -2  12  -8  14  18  25  -2  -3 -20  -7 -10  17  19  -3  -2  27  -1  -9  10  -4   1   9  23   3   4   1   2 -13  36  -7   3  -9  -4   1  -1  -9  -5   4 -17  12 -12  17  -2  15  -6   9   2 -25  -8  12   1   5   9  15
-16  -7 -12 -11   7 -11  12  18   8  27  -3  -3  13   4 -13  -1   2 -17   3  -4   5 -10 -15  -8  23  16   6   1  13  20 -27   9  -8  13   9 -10 -23 -12  25  -5   5  29   7  -5   2 -18 -18  -4   8 -15  18  -4 -24  -8 -13   9  17  -5 -11  -2   5   4   4 -17
  3  -8 -17  -2  -7   8  -2 -21 -30  -6 -11  27   0 -29 -16  11  -1   6 -14  -9  10  13 -16  15  -6   4 -11   5   2 -26  -2 -11 -14 -10 -23 -15  -4  -7   1   8   1  19 -17  10  13  -9   9   5 -16 -11   7  -7  12 -16  18  -2   2  -5   3   5  -2  13  -3 -12
-19  -9  -6  -4   1   4 -22  20   1 -10  -8  14   8   1  21 -10  -3  11   3  -4  10  -5 -15  -1  -4  -4  -9   3  -8   6 -15   9 -18  15  -8   4   0  17  -5  -5  10  -3  -9 -16  -5  -3  -9 -21   5  -3   4  -6 -10  -9  -2   3 -24   0   2 -21   0 -12   1  -4
-15   7 -19  -7   9   1  13  -8 -14  12  -9  -4  -2   4  -3  -1   1  -2   1   1  12  18  -4  -6  11  -1  15  17  15  -1   2  10 -17   4  -9 -15  -5 -12  20   1  13   0   0 -13  21 -11   8 -14   7  -9  21 -15   1  -1   5  -4  14   2  11  10   9   0   3  -5
 -6   8  -1   8 -15  -7  -1  23  -9  19 -17  -9  10  -3 -20   5   8  -9   3   0   1   1 -17   3  -6   8  -9  19  19 -19  24   4 -10  -2 -13  -3  14   6   1 -11  -2   1  -3 -13   6   3  -7 -17  12  -9  -3 -14  -8   2   1   6 -30   7   3   9 -10  -2  -5 -11
  2   6  -4 -13  -7  18   7   8  21  10   8  22  14  -5   9   0 -25  -2  13   3  24  11  -2   0  -6   2  22  10   8   3  -8   3  -7 -14 -18 -11  -2 -13  12   1   5  15 -12  -6  17 -34 -11   9  -4  -6  15  13  -5  10  -6   8   5   3   4  15  -8 -20 -13  -5
 -3 -16   3   2  -2  11   3  11  -9   4  -9  -2  -4  10   8  -3  20 -13   1  -4  -9 -20   3 -14  -5 -16 -16   3 -20 -20  18  13 -12  13   0   3  15  10 -21  -7   1  15   1 -11   8  -3   4  -4   4   4  10 -17  20  15  13  18  14  -5   4  -4   6  -2  -1  -7
 -4  11  -4   7   7   2   5   6   5 -13   5  18   7  -7   1  -6   1  -4  10   2   8  10 -24   4  -9 -14 -11   0 -12  -3  29   1  11  27   1   0   1   1  -2  -6   5   6 -19 -13   6  24  19  -4  14   3   9  13 -16  -6   8  -9   4 -15   9   6   9 -14  15  -1
 11   1   5   0 -20  13  13  -9  15 -26  -1  -7   6   0  -2 -32  -7  20 -28 -14   1  10   4  16  19   5  -9   2 -13  -1 -13  14 -13 -19   3  -3   1  14  -4 -19  -4  -5  10   6  -8  -1  -7  -5  -1  20   3   0  -5  -1  -4  11   3   7  -3  -9  -9   1  29  17
 -7   9  -9 -20  19  -8   0  -5  21  -5   6  -7  -4   7   0  -6  13 -10 -19   0  -5   7  16 -16  11   1   9   0  -6  -1 -17 -13  -3  13  20   0  -6   0  -7  -6  12  13 -12   5 -29  19  14   3  16  20   5  -5  -1  11   2 -11  -2  -3  21   7  -6   1 -23   7
 -2   6   4 -20  10   2  17   1   7  -2   4   3   9 -27   2  -2  19  -6  -4  13   3   0  -6  -2  -9 -12 -12 -33   3   5  -3 -17   2 -12 -13  -1   3  -8  -2 -10 -19   5 -12   7  -2  14  12  -5   7 -15  -8   7  -4   8  -4  -4 -12   2  -3   5   2 -10   2   9
 -4  -9   5   2   9  -8 -34  -5  -6  11  12   1  -4 -29  15 -27 -13  13  -6  12  -9   1   9  -7  -2  14   5   2   3  -3  -4   8   2  13  14  -2   1 -11 -18  -3   4 -17 -15  -9 -25  10  10   4  14 -10  -9 -19 -10  -6 -20   7  -4  11  -9   5  16  -4  14 -30
 -4  10   0  -4  16  -2 -10  13  19  15 -12  -1  15  13  -4  11   7  -9   3  14  -7  -7  -3  -4   1   7  -8  -6 -13  20 -10  18  -2  -9  -8 -13 -11  -1   4   8  16  17 -35 -11  -9  12   5  -1   3  10  11  -9  13  -8  -9 -16   8   2   9  13   0   7  -6  -1
 12  -5  10   8  -9  -2 -11  16  -6  20  -8   3   5  -3  -2  -4   3  -4  -3  -9 -12 -14   3  -4   2  -5 -18  -3 -10  -2 -16  14  -4   0  11   4  -2 -10  -7   6   4   7   8   4   9  -8   9  -8  -4  12   0  11  -4   3  -9 -20   2  -4   7  -7  -2  -4  -7  -2
  5  14  39 -10  -8  14   3  -1 -16   3  10  -1  -4   4   5 -10  10  -5 -10   0  -6 -11  34  -8 -14   5  -6 -19  -6  -6   9  11 -15 -22   0  -7  21  -6  17   2   5  -8   9   1 -25  14  -2   9  -7  -3   3  -6  20   6 -11 -14   1  -1  -3   0   6  -7  25  18
 35  19  -3 -10  13  13   4   7   7  17  11  -1   7   7  -2  15   4   2 -22 -14  17  14  -8  -5 -26   2 -11  14 -18   2   4 -18  14  -2   5 -17  -6  -3   6   7 -29  10  -4 -15  -1  -4   0   6 -14  35  22 -12   5 -19   9  -3 -23  -7   6   2   2  -4  16  23
  3   5 -16  12   6  -5  -3  -9 -12  -1 -15  27   2 -10 -19   1  -1  -6   5   0  -9  -3 -17  12 -12  -1 -14  -2 -16  -9   5  13   7   9  -4  14  14   2  12   5  13  -9   8 -11   5  -1  -5 -20  -3   6  -4   4  -6  -9   1   1 -14 -18 -21 -15  13   4  -7  -8
 14  11 -24  -6  -2   1  21 -13   5   2  -9   5  -3  13  -6  22  -5  -4   5  11 -37   7  -8   3 -16  -1  -6  -7 -13   0  -2  11  -7  19  15   3   1  -1  -8 -17  -5 -26 -21   2   0 -20  -5  -2 -30 -13 -12   4  11  -1 -18  -6 -14 -22  10  -8   7  -2  -6   0
-24   4 -35 -10 -17 -11   1  -5   9  -6  10   0  -9   8  12   5  -2   6  -9  11 -14   4 -16  -5  -7   4  -3  10   4  -3   7  17 -20  -5   3  -6  -2  10  10 -18   1  22  -7  17 -15  -6  -8   4  -9   0  -2   1  -3  -9 -10  22  -2  17 -11  30  -6  -5  -2  -3
 -2 -11  -4   1  27   3   3   8  -7   3   1   3  -1   2   7 -10 -13   2  -5   1  -2   8   0 -18  -9   3  20  -2  14  -7   4  10  -4  20 -13  -6   6   1   1 -12  10  -9   4   0  14 -20  17 -30  -8  -4  -2   2  -6  26   7   8   3  11   0   3  -2 -21 -17   7
 -7 -16  10  -4   3  -3  -9  -8   5 -18  12  -8  -7  13 -11 -24  -8   5  12   5   0 -13   3   2   1  -4 -21  11  -5  13  -2   8  -4  -1  11   7  29  12  -5 -19  13   6 -16   2 -10   0   2  15   3 -11  13  -2  19 -19   1  -2  -4   9  -1  -3 -25 -15  13 -14
-15  -4  -4  -3  -1  -3 -11 -11  10  11 -13   1   2 -22 -16  -5 -37  16   1  -2   2  10  -8   2  -7  -2  22   0 -13  -3   6  -4  10  -9   0  -4  13 -15  24   8  13   0  22  10 -18  10   6  -8  -1   8  14   4   2   5  -1  13 -21  -9  -3   3 -10 -11   9   3
 -2  -8 -14   3   1  10 -26  -3 -22 -10  16  -2   7   6  -1  -6  -9  12  -3  -9   6   1 -12  -3  19   4  -5   2 -10  -2  15 -13  -2  -5   8   6  -4  -7  17   1  -7   0  24   5  -2   0  17 -19  -5 -10 -22  -2  -3  10 -12   2 -23   3  -3 -11 -11  -5   4 -12
  0   3  19   6  15  16  12  10  -6  11  14 -16 -16 -30   8  -7   0  -1   9  11   0  18 -14  11  12  -1  22 -10  12   8  -9  12   2   7  -5 -17  -5  -8   7 -13   9   1  -6  -3  13 -12 -18  -8  -7  -8 -17  -8  -1  -4 -15  13  19   0 -15  -3 -13  -6 -15 -20
 13  -7  -3   8  23   6  17   2   1 -31 -21  -3 -13  -2  14   0  -1  15  10  -3  -9  11  -8  -7 -23  -3  -9   6 -13  -4  -9  -1   2  -9  13  10   4  -6  -4 -16   6  -9  -6 -23 -10  -3  -4  11  -1   3   2 -15  -6 -17 -32   5  -1  10  10   1   8  11   7 -11
  4  -2   1   2   6  -1 -17  14  -5  -3  13   6   0 -37  -4  -8   3 -13  15   2  -1   2   3   7   2  -4  -8  13  29  10  -4   0  -5   3 -32   9  -6  -6  -1 -20   7   0 -13   7  -3   9  -3  -6  10  17   2  -6 -25   0 -20  -9  12  16 -15  -3   0   4 -11 -16
 -2  26  15   3  -5 -26 -14  -8   1  -7   5  -3  22  -5  13  27  -8  -7   7  33  -2 -13   4 -14 -19   0   5  12   7   0   7  10   4  11  -2  -5  15 -10   0 -11 -10  -9  20 -19 -22   9 -19  -3 -17  13  -2 -10  16  13  -6 -11  11 -13 -20   0   5  10  12   4
 -6 -13  15   3  -7  -4   4   3 -18   9  -5  -5   5  -6   6   0  11  -4  10  15  21 -12  -6   1  -6   6  -4   6  -6 -16  -3  14   0 -19   6  -3  -3  14  12  -7 -11 -19  24  20  18   5   1  10   9   7  -7   5   5  -9  -3 -10  -9  -4 -13  12  11 -25  -3  17
 -9 -13 -17 -10  15   5 -15   0   2  -2 -10   1  -1  11  -3  -7  -6  -6  10 -27  10  -4 -11  18  15   4  -3  -6   4  -4  -4 -12  -6 -14  -3  -9  10  32   7   6  17   1  -4  17 -19 -11  -3  25 -20   9 -13  -3   4   8 -23 -13  -8  -1  -3  26 -17  -4 -17 -11
 -3 -15  -2  16  16 -10  19  -5  20  -8 -16   9   7   8  30  -3 -15  12 -11 -13  13  11  -9  19 -16 -13  13 -10  -3   1  -5   7  10  -5 -12  -3   6   4  -5 -10   5  -5 -12 -16  -6  -5  -8  -5   0  -4   3   7   5  -2   0   2  -1  -6  17  -3 -12   1  -7  19
  3  -8  14  -3   7   1   6  -7 -18   1  -5 -18 -19  -8 -22  10  -8   3   1  17   8  -6   4 -31   1  -4   0  14  -3   9 -10  26  10   4   7  14   0 -14   9  -9  -4 -20   5  -7 -17   9 -17  -3  -7 -14  15   7  -9   6   7  11  14   1  -1  -7  13   3  17  -1
  0  -2   2  11 -16   0   8  -7  -4   6  -4   5   5  -6  -6   5  -4   7  10  -6 -16 -13   0  -8   4   8 -12   6  21  -3 -19   5   3  -6  -3  -4   0   3   7  13  15  -2   0  11   7   3  24   4  -1 -17  -3 -10   7  -2   2   0 -13   6  -5  -5   3 -11  -9  -8
 -3   5   8 -13  -2   0 -22  15   7   5  -6   1  23   3   7  16   0  -9   6 -16  10 -10   2   0   3  11   6  15   4  -5   5   2  -3  16  13   0   5  13   6  12  -8 -20 -10   3   8  19   9   6   8 -15 -19 -12 -23  -1  -5  -4 -11  -9   3   7  12  -8  -1   1
-12 -14   5  -1 -15   3 -16   9  12 -16   9  -6  -7 -15 -15  -8 -32  -2  -3  14   6   5  -4  -3   1  23  10  10  -3   1 -14 -20 -19  15  10   0  11 -13  14  -7   1   1  -5   1   5 -21   3  -9   0  -3  -9   3   0  10  -6   9  10 -15 -10  22 -22  -4  19  -6
 -8  -7  13 -12  11 -10  10 -12 -10  -7  15   5  -9   6  -7  -8   1 -32  -2  -4 -21  -1  25 -11  -2  15 -15 -25   6   2   3 -10 -22 -12   8   2  -2  -9  -5  -6   1   8  15   8  13 -14   0 -10  -5  11   0  10  -9  -4   4   8 -21  -7  13   0  13 -16 -10  14
-10  11  19   8  20   0  12 -15  -6  -1  11  -6  14  -7  -3 -12  14   1   2 -11  -9  15  12  13  -6   3  -5  -5  15  -5   7   1 -13 -11  19  -7   8 -16  -5  -1   9   9   2  -8 -18  -9  17 -10 -16   4 -12   2   2  -2  -9   8  17   9 -11  -5 -10  14 -29 -21
