 31  -2   0 -28  29  38  -5 -36  -3   8  32  -2  32  -3  -1  11   5 -23  39  15 -22  11   1  -9 -11  -7  -4  -4  -5 -18  16 -31   9  29 -22  -1  45  31  15  14   6 -10  23  -9  18   5 -15  15 -17  -7   1  15  10  -4 -22  53   1 -20 -16 -28  11  24  13  11
-12  39   3  -8  -2  40  -8   5  -3 -14   5   9   8 -46  48   3  15  -7  -1 -17 -10   6  -4   7 -17 -35 -17  -6   1  -4 -16 -37 -22 -11  16  30 -15 -11 -28   9 -11 -20  14 -33  28  43 -18 -18  -6  30 -33  30  -1   1 -12 -11  12  29   2   5  35  16  31   6
-30 -35   0  43  28  -7 -32  22  28   5   8 -12 -16   8 -16 -19 -11  -9  20 -14  19  22   6 -58 -12  22  13 -13  32  -6 -14  17  10  -5  -1 -19  14 -15 -12 -12  -4 -19  -5   8  19  -9   5  -8  17 -69  11 -37 -21  -9 -27 -10 -19  -1 -17  -6  -5  17  -3  24
 18  -7 -38   1  18 -14  17   1  -3 -17  13  20  23  14 -30 -21  -7   8 -30  20  71 -15   9  -4   5   7  -3  15  -7  26 -36 -16 -20 -10  13   2  -3   4 -10   2 -49 -34 -20 -35 -37 -18   6   6 -13 -13  -1  -6 -14 -13  -9  21   9   4 -14 -23  53  -5 -24 -19
-39   3  -6   4 -17  28 -24  35   3   1  -3   5 -11  26  -9 -29 -28 -36   4 -14  24  -3  34  -3  10  33   0 -17 -11 -29  26   9 -29  26   7   9 -37   7 -11 -23 -25  15   5   6   2   8 -10 -14  20 -23  14 -21  -6   7  16  10 -31 -12  -9  -2 -16  22 -20  16
 13 -17 -16  20  26  -9  23  28 -17 -30  34   4  31 -30   7  13   8 -21  20 -14   9   8  11  30   5  -3 -23 -58   3  15  21  -2  27  -6   4 -13 -24   9  13 -15 -16 -12  11  -9  -3 -47  19 -13 -24 -26 -17  -6 -35  -7  -4   1  49  -8 -25  16  -7 -30 -16  22
-37  -1   5 -17 -30 -23   4 -20  -6  21 -16 -25 -30  -9   2 -21  15  15   5  10  18  -4 -16 -33  30  21  -9 -17  -9  25 -26 -18   8  -7  -8   3   1  -5   0  11 -10   8 -23 -13   1   5 -18  38 -22 -22  -4  -2   2  14  20 -21   1 -11 -21  19 -10  11 -10   3
 -8 -11 -13 -24 -15 -39   0  18 -17   7 -16   5 -26 -15  -3  58 -24 -19 -15  -1 -14  -1  -7  44   2  11  -7   0  25 -13 -15  20  10 -57  -2  -7  -2  -8   7   9   2  42 -17  20  -9   1  -3   8  37 -13  -1  23 -23  13  10  -3   4   2  -1  39  12  -6 -26 -26
  5 -51 -23 -55   7  33   7  19 -13 -12  76  74  -5  -8   3  34   6  -4  -5  -7  15  -6 -50 -34  -4  28  14  15  -5 -14   1  -8 -30  40 -25  -5 -22  -4   6  35  19 -18 -17  14 -37  -6  16  12  -7 -32  12  40 -11 -19   6  -9   7 -32  25  28  15 -22  19  -1
  0 -41  -6  11   9  -2 -28 -13  -3  15  23   7  10 -28   3  -2 -43  -2   8 -25  10  22  -9  21   1  39  18   3  23  11 -13   0 -31   4  -9   1  21   6 -20  -1 -26 -22  11  13 -27  -2   3  -9   7  16 -21   1  17  -8 -19  -7  35   1 -27  12   0   7   0  -1
-21  -8  15 -24 -12  32   2 -30  61  28 -18  53 -29  14  25 -20 -52 -33  -5  28   8 -40 -13  -5  44 -18  30   9  12  27  15 -14   3  25  -2  20 -10   2   3 -15  -7  14  29 -17  21  -2  36  12  12  -1   3 -36  -1  31 -31 -16 -18  10 -18 -57  29   7   0  15
 -4   1  15  -1  42 -35  29  14   3  65  53  29   8  -2   2   6 -20   3  55  11  22  19   4 -32  25  -7 -13 -10  -3 -18 -22   3   5 -18   9 -23 -20 -14 -52   7  28  12 -29 -50  24   2  -5 -34 -28  34  56   2  -4  17  17 -22  -2   4  32  -1  32 -11  -6  -9
 -2  13 -16 -18 -30 -14  -8 -29 -78 -44 -21 -37 -18   7  36   5 -11 -12   7 -15   5 -13  41  14  -7 -10  26  -7  -8 -19  27   5 -19  21  11  24 -16 -23 -36  39 -15  20 -16 -28  29 -44 -17   7  23  -6  20  18 -18  -8   4  37   7   9 -27  18 -19   7   1  -5
-28 -17   7 -24   7  41 -17  -4 -36  -6 -11   8 -48 -11 -36  -7 -12  29  20  -6   7 -18   5 -48   9 -14  -4  19  -5  11  15  -7  -7  -1  19  32 -39  10  12   2  10 -37  24  13 -12  15  19  26 -51  -4  22   0  35  14  16  52  29 -23  59   9  -7  22  -6   5
-34   1 -12  -5  18 -47  19 -22   1 -16  -7  10 -43   9  35  44  13  -2   4  19 -26  16 -57  -8  -7   5   3  17   7 -47  34  72  52 -34  -6  28 -53  -2  19  -1  -6  14  26   5  -6 -11  31   7 -11   6  -9  -3  45 -18  23  54  35 -22  -8  10 -11 -35  15  13
 40 -24 -19  18   5 -11  -3  29  -5 -14 -38  17  16 -17 -15 -32 -35 -16  37   2 -20 -21  35  13  13   7 -20  16 -20 -17 -21 -26   3 -13 -34 -16 -28 -18 -41  24 -17  -8  13  10 -16  32  20  30 -26  38  28  13  32  -2  -1 -27 -12  25   8  10  44  26 -12 -22
 50  30   5 -38 -12  33 -35  34 -47  -9  -3  -9 -34   7   1   2  -9 -25  33  24 -10   4 -21  -7  -2 -25  20   6  21  45 -48 -20  22   2   6 -22 -15  10 -39 -12  -8   3   6 -12   8 -25  19  11 -53  21 -33 -13   0  -6  11 -30   3   7 -35  15   0 -13  -6 -13
 10  -4  -2 -35  13  19  20  19   7  -7  35  -1  29 -18  -7  -4 -44  -7  24  -5  -1  36   8  -9   3  28 -18  13  -7  18 -10   4  -7  32 -10  12   1  -7  -4  24  21  25  19  22 -30 -13 -11   3   0  -3  -6   4   0  22   9 -20   1 -33  41 -22  14   8 -14 -14
 45  -8   2  -8 -31  19  39  -3  41   7  -2  -3  19 -16 -12 -18  19  -5  14 -22  -2  42   6  -7   6  11  32 -25  34  27 -22  20  37  34   7  14  10  10 -43   4   6  30   2  -5   1   4 -10   4  28  11 -10  10  19 -36  19  35  31 -10   5 -28  -7  19 -29  -4
 32 -16  -6   8  -7  22  25 -29 -10 -44 -25  -4  25 -37  24  21  12   9 -14   2  41   7 -30  30  -5  -3 -19  46   4  20  10 -16 -18  -6 -18   5   7  19 -10  -2   0  35 -20   0  10  15 -43  34  -8 -38  23 -17 -12  11 -26 -13 -27   6 -25 -52  22   1 -60  37
 -5  23 -34   8 -23  -3 -21 -33 -31  17  -9 -32   1  10  14 -32   8 -29 -11   5  -5  49   4  13  23   6 -15 -42  18 -46 -41  42  50  16   3  11 -20  25 -34  33   4  14   7 -25 -23 -36 -21 -42 -12 -27  39  17 -16  -8 -15 -18  19  31 -15 -11 -23 -25   8   9
 24  26   0  -6  -2  -7 -37 -12 -30   8   1  -5 -13  19  -8  20  17  17 -11  45  20  -1  16 -14   0 -29 -40 -26  51  33  -6  13  15  30  26 -14 -20  22   6  11  -8  40  -6 -22  22  24  20   0  -8 -15  -7  28 -20  11  32  26   9  -3   0  38 -42 -18  -9  -6
 -2 -32  -4  -7  20 -10  12 -19 -26  -8  25  -6  15 -59 -42  -1  26 -24  17  29   5 -30  13 -18  43  20 -13  16  -9 -23  29  29  28   1  19 -14 -30  19  16  15  25  -1  51  10 -29   5  34   4 -19  20  -6 -17 -31  12 -22  29 -43   0  13   0 -48  -7 -14  10
 13  14   2  28 -45   2   1 -26 -24  -5  -1   8  -3 -17 -11 -28  -3  25  47  21   8  38 -11  -3  10 -37  38  -3  26   7 -12  35   5 -24 -15 -22 -19 -23   0  12  24   3  16  11 -11 -12  -4  65 -17 -35  24 -12   8  24 -15  27  20   4 -30  52  32  -9  -7  23
 19  -2  19 -13 -45  54 -13   4   4 -22 -17  44 -33 -18 -18  24   8 -30 -11  -2  32  29  -7  19  -1 -19  27 -31   8  -9 -15  33 -11   1  -3  29 -20  54  16 -23 -10 -10   2   1  -8   7 -43  -7 -21   3  23  24  -4  -1  29  13  -5 -55  24  10 -44 -19 -18  19
  4  31   5   1 -23   3  31  -6  34   6 -29 -10  14 -23 -29   5  -5  34 -18  23 -10  23 -52  16 -10  -8  54  -9  30  24 -19  -5  10  39 -11 -15   5  12  15  24  15 -14 -28 -16 -13  -1   6  -2  22  24  30 -13   2  -3 -23 -31 -38  -6  -4  -4 -31   9  18 -15
 12  22  -1 -37   7  -6   3 -24 -21  14   7  39  10  10 -59  23   2 -20  -5 -37  -5  -5  -3 -37 -18  14   3  32 -46 -10 -16 -51 -11  22 -37  12  28   8 -21 -16 -19   1 -28 -20  10  43 -15  -5 -29  -3   1   2  39  50  -7  20  14  -8 -30   7 -18 -18   7   8
 -9  -5   4  20   0  24 -10 -13  -2  34  -9  11 -29   2  20  19  -9 -19  26   2 -20 -48 -15  21 -24  17   7   7   4 -31   6 -35  27  14 -41 -17  25  -2  -1 -10  26   5  -5  30  23   9 -10  33 -11  26  -2 -19 -20   1   0   4 -15  -1 -22  19 -14   7  10  -3
 22  11   2  12   8 -33 -14   5  21  18 -61 -11 -20 -29  42  10  11   9 -28  26  17   7   7  16   8  43  -9  52 -14 -28  -5   1 -23   2   5  -4  11  -1  -1  30  -1   1 -58  22  16  20  24 -18  25  17   7 -31   1  12  -9 -21 -25  -6   3  -7   6  13  21   8
 -4  -4  -3 -55  61  -6  -7   2  27  23  18   0 -11 -10  42  31  13   6 -18  17 -19  36 -31  -4  -6 -10 -21  36  10 -13   9   2  -8  24  21  -5  -7 -21  -7  -8 -10 -16   4  23 -14 -32   6  -5 -10 -44   2   4 -14 -17   5  28  16  -7  11  -3  23   0  -6   9
-10   3  37 -21 -31   5  17  -8  12   8 -51  19   7   0  20  10  -4  27  -1  26 -29 -26 -25 -16   0   4  -3  -5  15  30  25 -19   8 -24   2   8  19  15  15  -8   8 -13  40  -6  14  -5  -5   3 -47  35  20  19   8   7  -6  -1 -41  59  10  -2  -8 -22 -23   7
-39   5  26 -10 -22  26 -12  14  49 -17  38 -16 -37  13  -2   4 -38  12   6 -10 -18   1  23  22 -26  -5 -22 -31 -17 -19 -22   9 -31 -12  27 -12 -28  26  29   0  26  11  24  -5 -16  15  -1  -6  -2  73  19 -11   2   4  12 -26 -21  33  -3 -16   9 -15  23 -19
  7 -12   4  -3  -4  10  -5  17   7  -1 -30 -33  40  22  -1  14   8 -14   4 -14 -18  -6  25 -24  32  17 -14  -6 -13 -15 -14  -8 -20  -1  22  31  -1  -1  -3  -5 -33 -27 -28  -3   7 -21  33   7   6   7   1  -1 -33   4   6 -47  48  -3 -26 -25  19 -21 -12 -15
 17 -12 -12  -3 -27 -35 -45   5 -12  -1 -31 -13  23 -22 -16 -17  13   2 -29  -2  -2  18 -29  -4 -11 -15  18 -33 -15 -34  24  39 -27 -13  23 -27  18 -20   4 -28 -25  12   6 -17  21  -2  -2  15 -18  -8  -9  15   0 -30 -32 -27  44  14  25  25 -43  11  -4 -31
 35 -55 -22 -31   9  14  -2  10 -13 -19 -18 -14  -7 -38  54  27 -52  26  -4   3   0   1 -10  29  -9  -1  -6 -17 -48   2  -7  55   3  48  -3  38 -23 -21  50 -24  22 -41 -31  -9  -3 -77  15  38   5  18 -17   4 -17 -10  27 -29  -7  -2 -38   9   2 -20  25  -3
  3   1 -26  23   0 -26 -31  -7  -5 -23  28  23 -26   3 -16  -3 -36  26  17  -8  34  15 -24  32 -34  14  13  -6   6  16  31 -24  17 -25 -33  14   5   2  27  -5 -26  11 -40  -1  20   3  -1  23  28  -5  -4  16  64  12   9  -5   0  16   3 -29  11   1   7  15
  2 -21   0 -11   2  34  -4 -19 -25 -45  25  37 -29  17  15  -6  10   2  -9   3  42   8  23 -20 -35 -36 -11 -44 -24  46  28  21  30 -21  17   0  33  15  -2 -34 -29 -38  15 -14 -18  13 -17 -66  11  10 -33 -29   8  14 -34 -17 -16  12   6  32  11 -15  31  23
 28  31  21 -22  -2 -24   9  32 -31 -39 -45 -10   0   3  -3  21  45  41  10 -53  13 -27 -10  37 -34   6  10   1 -20  29   6 -23   3  35   8  31  -2  -2 -12  -5 -30 -11   2   1 -36  -3  27  35  32 -13 -10  26 -19  30  12  33  -8  -4  17   4  10  -2  30  25
 17  11  -2  -6 -19 -30   1 -17 -24 -22  15   5  -1  22 -25  40  14   1   2  33  36  -5  -7 -28  10  -9 -26  11   0 -22   1  27   7  20  17 -12 -10 -23  17   9 -27  -3  18  23  -7   9 -29 -44 -12  38 -14 -33  -6  12  22 -18 -26  -5   3   5 -16  -2  -7  16
  3   6  23  -5  10   5  13   5 -21  29  -8  34  11  12 -21 -12  14  52  41 -30  10 -22 -26 -21 -23  -3 -27 -24  -3 -24 -28  15  -9  16  12 -14   2 -19  47   4 -19  21 -16   7   1 -36 -35 -54 -43   6 -35 -19 -42  17 -13   5   8   0  12   6  12   7  -4 -16
 26 -22 -51  24 -26  37 -30  29 -37 -32 -26 -40 -15 -44  -8 -27   3   1 -45 -12 -29  -1  40   8  -5  -2  35   2 -18 -11 -46  -6  -2 -15 -34 -22  12   8   0 -11 -29  -8  49  23   8  25  -6 -11   5  -6  -3  -1  47 -24   5 -33  -4  37  15   5 -19  -2  37  20
-13  14  47   4   9 -27   6 -48 -33  -2 -35 -42   0 -23  -1  17  25 -12  21  -6 -20  -9  45  -1  16  26 -37   3 -13   0  -3 -27   7  -1  16  15  22   0 -11  21  68  10 -27  12  56 -68   3  14  37   5  -6  -5   0  31 -31  25  23  10 -12 -33  18 -24 -11  -5
 -7  10  28  15   4  15  -2 -26 -63 -29 -15 -15  -9   9 -31  -2  26  -2 -12  32  16 -24  10  -6 -26 -18 -15 -28  26   8 -16 -33  -7   6  65  37   2 -12 -27  22  -3  40 -19  21   5 -13  -4  -3 -31 -34 -64 -39  -1 -26  -2   2  11   0   2  22 -45  18 -38  38
-49  12   1  -9 -18  28  18  -4   4  22  16   2  45 -22 -22 -12  -8 -38  31  -2  -7  -7   1  33  20   2 -12  20 -15 -15 -22  -6 -30  -8  -2   8  12   3  16  11  21  61   6  -4  36 -18 -16  22 -44 -58  15  15 -22   8 -14   4   6  12  -4  -4  26   7  29  10
-25 -21  28   7   4  -8  -9  39 -36   4 -21 -59  16 -49 -14   2 -17 -23 -10   8  -9 -11  13 -39   8 -17 -10  22   2  -1  22  23 -21  -7 -10 -50 -21 -23  18   4   4  14  44   2  -7 -40  33 -11   8 -10   1 -15  22  40 -22 -46 -12 -32 -11 -48   3 -11   6 -15
 20   7  27  53  -9 -15 -33 -35   3 -29  18  -9  22  14 -32 -27  -2  -6 -33  20  35  14 -12 -13 -23 -25 -14   7 -33  17  14  -9 -45 -26  -4 -25  27  32 -52 -39  -1  -8  -4  -1  12  -4  -9   1  32 -34  36 -34  -2 -19   7  29  -1  -9   1  28  -5 -15   4 -18
 11 -55 -11  31 -10 -19  73 -53  -4 -37  34  -7  19 -16  18 -48  16  30  -8  -1 -29 -13  -2 -13  -6 -18 -16  12 -20  26  -6 -30   8  19  -9  12 -38   2  19   6 -24 -35  28 -39   6 -16 -18   9 -50 -19  19   4  22 -33   7 -17   5  -9 -44  -5   5  11  -8 -13
  6  30   6  16  -6  -6  -2 -11  28   2   0 -40   1  -8  -5 -30 -16  -7  51  -9  19  18  43 -29  19 -44  16 -25  46  15  22   8  -5   5 -18  44  10  21   8   6 -16 -14 -30  -5 -15 -37 -12  30  21  -7  17  32  10 -53  26   7 -19  -3  -1  -7  12 -21   2   2
-11 -40  11   1  34   3 -12  23 -17  21  10  43  14  33  16  19   0  -4  14 -24  13 -26  -4  39  42 -26  -5  25 -16 -24  22 -13   9  23   4   2  -5 -48  43  -9 -14  15  20   8  10  -8 -14  20   5  22 -32 -14 -51  18 -40 -12 -16  -7   2  -9   5 -47   3  -1
 37  24   9  -2 -39  15 -30  -9  12  -9 -32 -17  17 -41 -100  29  34 -11   3 -10  53  21 -45 -34   9 -17   3  23  -2 -24  22  -1 -22  -8  -2 -34 -24 -40   8 -20 -29  18  32 -33   6  10  24  -6   4  22  17  35  19   0 -31   3   2  26  17 -12  -2  14  -4  24
  1  -5 -29 -13  10  -6  13  -6   8   6  20  -7  11  12 -37  -9  16 -40  37  27   6  38 -13   0 -10 -10  14  29 -20 -41   0   5  14  14   3  29   9 -27 -44 -29  17   4  23 -38   2  64  24  -8 -27  18 -19  27  15   5  18 -10  -9 -11 -18 -13   5  15  -2   1
 41 -25  15  -1  16   9  25 -19 -40  12  16   6  11  14   5 -21  16   0   2   1 -28 -35  -4   4  -8  -3  10 -30  -9  -1 -63 -27 -25  -3 -43  -5  18  -4 -12  18  18   8 -30  38  16 -33   2   2  19 -12 -17 -38 -42  54 -18   3 -16  -4   8 -22  25 -29  11 -12
-53  -5 -27 -22   6   7 -18 -17   6   1  -1 -15   1 -24  17  54 -61 -26  -9  29  -5 -11  10  22  20  43  10 -12 -14   8 -17   9 -38  49  22  -8  37  22  18 -12 -13  42 -14   4   2 -32 -20 -49  14   7 -18  -7  15  -1 -50  -9   4  22   3 -23  -9 -23  27 -14
 28 -13  -6 -17  18  14   3   0 -29  -9  -1 -38   2  21 -14  16  -9  -1 -14 -11  -5  -2  -5   9  31  33 -12  15  11  18 -10  -3  10   2   4 -20  11  14  15  12   9 -15  23 -11 -33 -35  30 -21 -31 -11  -9  13  -1  28 -33  45  10   1   4 -13  17  11  50  -9
  2 -25  27  -5 -20  17 -26 -18 -13 -35  -8  32  -6   3  -3   1  15 -26   5  36   9  -6 -16  -9 -42   2   9  13 -12  13 -24 -12 -10  11  17  -9 -20  11  26  19  -3 -12 -21   4  21 -44  39  11 -10 -27   2  -9 -19 -25 -12  22 -14  38   3 -31 -54 -13  57 -17
 20 -25  23  15  18 -28  15  -8  22 -18   1  38   4 -20 -42  17   5  -9 -16  54 -45 -20  13  10 -24  -1   3  11  -8   4 -26  61  35 -11 -35  28 -12  17  20 -19 -10  -5 -16  -2  -2  -2 -27   5   5   3 -30   8  48  40 -20  27  10 -34   6  -3   1 -15   3 -18
-24 -12  -2 -16   1  -3  -4   1  25 -12  -5  23  -6  20  18 -13  21   1   2  13 -13 -21 -28  19 -18 -14  -6 -10 -37  -6 -20  -5  28 -29   6   1 -29  16  17  62   1  -1  25 -16   1  14  -3  -2 -16   0 -29  20  34  26  10  -6   9   1  20 -18  16   1 -27  20
 18 -43  -9   9  28 -21   1   3   9  -4 -30 -25  18  20  34  52 -32  11 -26  33 -11 -16  -8 -15  18  33  12 -10 -19  24 -29 -15 -13  -1   0 -17  42  29 -15 -14  -1 -21 -12 -12  12 -15  -4  -5  -4  -6  18 -12  30   4  19  13 -29  -9 -29 -14 -19   3  -6  -3
  3  14  27 -27   2  -8  29   0   6  15  36 -10   2  55   6   6  44 -41  11  31  -7  47   4   2 -52  70 -42   4  20 -13  29  15  51   1  -7 -33  -2  10  -6  25  21  29   2 -19  18 -28 -26  -5  29  58 -17  -8   6 -36   1   6  33   0  -3  32  21   1  14 -29
 21  -5 -24 -17   2  -9 -41  45  20 -11   2  -5  25 -31  13  -7  25  28  28  21   6  25 -30  25 -18 -25  24 -41  -2 -20  23  25 -17 -11  -2   3   3 -31   6  11 -31   7  22  23 -51  25 -23 -40  23 -20  23   0 -46 -28   9  33  11   2  -8  17 -48  -1  17   4
-23   9   4  10   8 -12  -8 -14  24  44   5  -9  12  26  11  15  -3 -23   5   6   6  12   8 -12  -5  -7 -35  23 -12 -14  37   2   2  11  26  20   3  12 -15  22   4  14  21 -29  28  15  21  -7   8  28  20  -1   4 -38  -1  -1 -13   7 -20 -45   6 -24 -10   4
-20   7 -30  -5 -18   1  23   3  38  -2  -5   0   0   2  -6   1   0  12  33   5  -2  38  -3   6 -25 -20  16  16  16 -25   8   2  50  -8  -6 -13   1 -30   8  10   7 -10 -29  -6  55  11  10  -7   1 -20  -7   8  19  13  21  12  30 -23   3  19  16  19  13 -35
 35  -1  18  19  34 -31   6  -8  22 -20  -1 -16  17  -9   6  33 -12   2  10  12   3  -9 -39 -18 -13  -7  -4  12   2  -7  -3  16  -6  -9  -3 -10 -29 -36  45   3 -18 -18 -21 -24  23  -2   5 -17  31   5  31 -29  10 -21  17  14 -15 -18   8  23 -22 -12   4 -33
 35  -3  -3 -16   6   7 -35   1 -16  13   5   5 -19 -33  41  -7  10 -14 -17 -13 -18  -6  50  20   2  10 -12   0  -4  -1 -11  17  20 -23 -14  17  18  -9 -36 -33 -26 -28   1  19  -1   3 -45   8 -15 -24 -15  12 -26  15 -22 -10  -3  -6  -1  -3 -54  -3   9 -12
