[  27.0414   52.0292  101.9322   57.0634    1.5938   32.0874    3.5138
    6.832    32.1091   60.3988  -13.7139   74.6659  -14.0726   53.6089
   95.9321 -122.8142  -12.2708    0.4515  -52.0718  100.3807  115.9635
  -48.8974   93.4881  -30.7523   12.1228   36.9526  -33.8934  124.5748
   75.5998   14.5237  -55.8806  -68.4104   -1.9826  116.0999  -36.7407
   -7.7136  120.1341   16.2934   51.9518  -90.9508  -57.0388   60.6644
  -83.0395   51.9528  123.1154   -9.82    119.8119   24.1878   12.2813
  -81.5481  -28.0853   11.9109  145.6846   54.9837   93.1983  -37.4833
  -20.903    18.5625  -29.9091   86.571   -28.8257  -15.3408   18.225
  -50.0053]

[
-14.595000000000027 , 
-28.325100000000052 , 
-45.81879999999994 , 
14.948299999999884 , 
25.80109999999995 , 
55.567099999999996 , 
68.00139999999993 , 
-38.0430999999999 , 
-48.71220000000005 , 
-2.3319999999999332 , 
-20.992700000000042 , 
2.1933000000000313 , 
-27.254999999999875 , 
-59.15150000000009 , 
-8.60370000000003 , 
39.46880000000025 , 
8.657399999999997 , 
10.42040000000001 , 
-9.255 , 
3.8162000000000047 , 
12.9593 , 
29.060700000000065 , 
-33.45679999999992 , 
35.95239999999992 , 
-28.711200000000023 , 
-75.31750000000004 , 
-84.99749999999976 , 
-32.090100000000014 , 
-95.71290000000026 , 
25.639499999999924 , 
-62.027199999999944 , 
9.99409999999993 , 
-8.858099999999883 , 
-34.459799999999916 , 
0.24209999999999754 , 
3.904799999999963 , 
10.65349999999995 , 
-46.00790000000005 , 
25.43830000000004 , 
-36.09400000000009 , 
43.62750000000005 , 
-24.354199999999782 , 
43.103299999999855 , 
16.946699999999954 , 
-16.446900000000042 , 
25.13499999999997 , 
5.022499999999983 , 
47.06509999999985 , 
32.86660000000001 , 
42.82390000000004 , 
8.025799999999968 , 
12.423900000000025 , 
3.624899999999972 , 
-5.589600000000017 , 
11.463600000000113 , 
82.3986 , 
-1.4448000000000063 , 
-40.35909999999997 , 
53.327500000000015 , 
-3.548599999999919 , 
-9.292600000000055 , 
14.49379999999996 , 
12.062500000000195 , 
68.25899999999992 , 
]

[
37.734200000000065 , 
-8.582399999999922 , 
-11.541800000000013 , 
-21.585199999999965 , 
-16.15900000000014 , 
-80.64239999999992 , 
-8.032800000000023 , 
-0.09230000000000316 , 
-27.29749999999994 , 
-39.64360000000006 , 
38.43620000000006 , 
-40.27930000000005 , 
-57.90049999999995 , 
23.42770000000007 , 
33.57609999999998 , 
5.833699999999977 , 
-8.78620000000003 , 
43.08739999999996 , 
-42.74690000000004 , 
5.247900000000053 , 
3.9189999999999836 , 
27.252700000000004 , 
0.41610000000003833 , 
-7.218299999999986 , 
-2.294899999999861 , 
-16.80929999999996 , 
-24.84699999999998 , 
56.22710000000003 , 
-8.205100000000042 , 
6.349099999999947 , 
8.28959999999998 , 
56.448199999999936 , 
-16.97689999999999 , 
26.821700000000064 , 
5.101399999999961 , 
37.69329999999992 , 
19.507800000000035 , 
45.418199999999985 , 
-56.7413 , 
-4.31320000000001 , 
-20.19830000000006 , 
-34.41940000000005 , 
15.088400000000004 , 
2.985299999999949 , 
-62.06480000000002 , 
51.24309999999994 , 
3.246599999999993 , 
65.00159999999994 , 
32.2359000000001 , 
-56.70180000000017 , 
-31.316199999999956 , 
42.909000000000006 , 
-14.47239999999996 , 
0.7812000000000475 , 
13.193999999999981 , 
26.532500000000123 , 
37.72529999999989 , 
-14.449900000000046 , 
-16.23060000000003 , 
-22.961799999999954 , 
-19.447099999999942 , 
-15.785999999999987 , 
-42.08430000000013 , 
-46.64990000000013 , 
]

[
-28.798299999999983 , 
37.527200000000015 , 
-25.94840000000006 , 
-39.84120000000003 , 
30.673599999999922 , 
24.05019999999998 , 
43.57650000000006 , 
29.112599999999937 , 
-35.59099999999996 , 
-3.356499999999894 , 
-48.14500000000001 , 
-71.65759999999996 , 
9.390899999999895 , 
43.57940000000012 , 
48.55290000000007 , 
53.9066000000002 , 
-54.849 , 
-37.01560000000004 , 
-10.096200000000058 , 
9.020399999999974 , 
-26.548300000000015 , 
13.923699999999991 , 
-21.46969999999998 , 
-12.211600000000006 , 
33.91539999999998 , 
-29.320100000000107 , 
-26.711599999999994 , 
14.663199999999918 , 
-29.55380000000003 , 
11.0266 , 
13.777499999999995 , 
-3.3905999999999574 , 
8.654900000000037 , 
-55.11820000000007 , 
23.958699999999983 , 
8.67390000000001 , 
84.02599999999995 , 
-39.67420000000004 , 
27.990699999999915 , 
9.683200000000044 , 
94.08149999999995 , 
35.832799999999814 , 
26.081500000000077 , 
13.533000000000007 , 
-0.17390000000001926 , 
-19.518900000000023 , 
-31.930900000000072 , 
-43.77939999999988 , 
-21.57509999999996 , 
-16.185500000000037 , 
71.69869999999966 , 
59.01960000000001 , 
35.80139999999994 , 
92.52590000000005 , 
-24.94180000000006 , 
22.896899999999956 , 
-5.838600000000065 , 
7.713900000000022 , 
-31.71769999999996 , 
12.069700000000038 , 
41.564899999999994 , 
-35.93640000000011 , 
39.5349999999999 , 
-51.08649999999992 , 
]

[
10.395400000000006 , 
0.7143000000000127 , 
-69.6070000000001 , 
-21.670400000000008 , 
59.387799999999984 , 
9.212900000000005 , 
-45.25079999999997 , 
-36.468700000000055 , 
5.893400000000026 , 
34.07909999999998 , 
5.680699999999996 , 
-25.629699999999875 , 
9.606599999999993 , 
-0.9290999999999913 , 
-1.4504999999999617 , 
35.45469999999995 , 
5.523200000000001 , 
64.90810000000008 , 
48.93389999999987 , 
57.919800000000095 , 
53.27980000000005 , 
12.52659999999994 , 
-6.003499999999885 , 
34.53130000000001 , 
-9.782699999999993 , 
17.655899999999953 , 
-9.130600000000022 , 
73.15270000000011 , 
31.795300000000196 , 
64.84719999999989 , 
-57.067899999999895 , 
7.661700000000007 , 
6.3905000000000385 , 
-7.36040000000001 , 
-27.551499999999965 , 
-30.811199999999943 , 
-57.73280000000021 , 
88.45399999999992 , 
35.54019999999993 , 
-69.31209999999997 , 
22.4023 , 
52.753500000000145 , 
0.6109000000000318 , 
0.8207000000000303 , 
27.98640000000005 , 
3.223999999999985 , 
-21.451899999999934 , 
29.699400000000146 , 
19.935099999999995 , 
8.852499999999973 , 
26.405099999999983 , 
16.424000000000028 , 
-33.27440000000001 , 
31.20819999999999 , 
37.09550000000009 , 
-44.59029999999992 , 
-68.23459999999993 , 
-4.2304999999999975 , 
-68.3190000000001 , 
-76.25460000000015 , 
-2.9512999999999043 , 
-7.549199999999981 , 
14.317300000000003 , 
-5.61109999999998 , 
]

[
50.036900000000145 , 
-31.68390000000006 , 
-99.03129999999969 , 
-59.33320000000021 , 
-10.323899999999988 , 
-17.32410000000005 , 
38.66049999999994 , 
-2.6286 , 
-46.091200000000036 , 
-40.70220000000021 , 
38.344999999999914 , 
-31.811000000000096 , 
-34.78730000000002 , 
32.531799999999976 , 
17.70009999999995 , 
-20.324999999999957 , 
-8.809999999999981 , 
28.67440000000001 , 
-32.41829999999994 , 
-3.1778000000000195 , 
15.494499999999926 , 
-114.46159999999999 , 
-57.85260000000003 , 
8.89959999999996 , 
-21.093899999999945 , 
-59.72080000000036 , 
42.10870000000008 , 
-4.265800000000051 , 
-30.68290000000003 , 
41.42490000000001 , 
28.04059999999995 , 
16.81319999999985 , 
-23.564099999999975 , 
41.86389999999999 , 
-14.721500000000006 , 
-10.440299999999985 , 
-21.03089999999999 , 
4.9012999999999876 , 
-56.87070000000026 , 
11.024500000000035 , 
23.62820000000012 , 
-6.512899999999982 , 
-31.672299999999964 , 
6.976300000000134 , 
13.801399999999937 , 
-5.527199999999955 , 
35.54389999999999 , 
21.4357999999999 , 
-21.47060000000003 , 
-53.63650000000009 , 
-49.34029999999995 , 
17.68680000000003 , 
-18.670100000000062 , 
17.443800000000014 , 
-31.89549999999986 , 
-33.3165000000001 , 
-27.76240000000004 , 
-6.122199999999988 , 
25.008399999999916 , 
29.908699999999907 , 
-54.128 , 
40.143700000000095 , 
15.063500000000081 , 
55.979700000000165 , 
]

[
39.16169999999989 , 
27.030399999999954 , 
21.671300000000034 , 
29.78790000000002 , 
3.6133999999999733 , 
-33.7536999999999 , 
0.061399999999962485 , 
49.54060000000009 , 
44.4772 , 
-27.802400000000095 , 
26.815200000000004 , 
-2.2424999999999513 , 
-1.2045999999999653 , 
31.137699999999978 , 
-10.337800000000083 , 
10.528500000000038 , 
-27.766400000000036 , 
55.764799999999994 , 
5.093299999999885 , 
-46.56639999999996 , 
-45.09749999999998 , 
-11.533499999999941 , 
17.23700000000003 , 
25.64710000000002 , 
19.586799999999922 , 
21.44390000000001 , 
-46.11299999999997 , 
-33.51650000000009 , 
-8.203699999999909 , 
-76.79320000000017 , 
67.48189999999994 , 
-35.149100000000004 , 
21.961299999999955 , 
-20.221300000000003 , 
-5.456000000000046 , 
-46.08540000000008 , 
-13.463100000000004 , 
17.582100000000036 , 
49.124699999999976 , 
-19.611899999999995 , 
0.5602000000000267 , 
37.29599999999997 , 
-7.091299999999981 , 
26.763199999999973 , 
14.166999999999973 , 
50.43359999999998 , 
-8.67450000000006 , 
14.720700000000026 , 
81.29660000000015 , 
5.528300000000053 , 
4.024299999999941 , 
-14.947500000000026 , 
-16.653199999999966 , 
28.714999999999982 , 
27.51630000000005 , 
28.030300000000004 , 
-8.912100000000006 , 
6.195199999999998 , 
26.244800000000033 , 
-19.32430000000002 , 
-13.113600000000007 , 
52.09399999999984 , 
37.5529000000001 , 
17.65769999999998 , 
]

[
28.479799999999887 , 
-42.462700000000005 , 
-15.099199999999998 , 
10.354299999999927 , 
28.511000000000088 , 
-29.105500000000035 , 
33.05210000000001 , 
-43.91849999999995 , 
-31.123400000000053 , 
44.030699999999925 , 
-18.3048 , 
-23.65900000000001 , 
35.02649999999994 , 
-48.03889999999989 , 
-23.644200000000012 , 
-5.694899999999988 , 
3.3900999999999804 , 
-68.38619999999993 , 
-9.96000000000001 , 
32.53750000000004 , 
-11.589899999999963 , 
24.90980000000001 , 
-0.9631999999999996 , 
-28.02180000000002 , 
22.92620000000005 , 
50.08160000000015 , 
-43.88519999999997 , 
-54.851200000000006 , 
39.34230000000003 , 
-22.857799999999983 , 
35.81969999999983 , 
-40.88589999999997 , 
-35.80729999999985 , 
-22.08909999999998 , 
-86.88929999999971 , 
-30.962899999999916 , 
19.876100000000037 , 
27.380000000000003 , 
-48.15129999999975 , 
41.74839999999993 , 
8.545200000000051 , 
-22.90429999999991 , 
24.355600000000013 , 
45.726599999999934 , 
10.479899999999969 , 
2.9436000000000178 , 
17.487100000000037 , 
30.388499999999816 , 
17.517200000000084 , 
-7.410399999999982 , 
-28.882299999999972 , 
-40.67920000000014 , 
38.63310000000005 , 
-55.5333000000001 , 
-75.01119999999992 , 
-10.843500000000075 , 
66.34600000000013 , 
29.189200000000074 , 
4.476100000000033 , 
20.901299999999985 , 
-33.86090000000006 , 
-0.1822000000000289 , 
-49.548600000000064 , 
11.103400000000093 , 
]

[
10.052799999999971 , 
-60.33060000000014 , 
-41.78439999999993 , 
56.607699999999944 , 
22.606000000000027 , 
42.667799999999986 , 
-14.726900000000047 , 
65.64569999999999 , 
47.551199999999994 , 
-55.30580000000001 , 
21.700100000000024 , 
28.53680000000005 , 
7.52260000000003 , 
-34.7282 , 
-39.030199999999994 , 
29.265299999999968 , 
87.25579999999994 , 
-51.25089999999992 , 
-51.574699999999964 , 
-36.14379999999996 , 
8.29909999999987 , 
15.399500000000083 , 
9.062300000000006 , 
40.92019999999997 , 
50.22609999999999 , 
7.395200000000011 , 
5.726999999999977 , 
12.914000000000023 , 
-11.1822 , 
-93.47570000000006 , 
-4.140699999999954 , 
-61.128 , 
26.718800000000044 , 
-20.585399999999964 , 
40.236300000000064 , 
16.361499999999964 , 
-27.904799999999966 , 
-16.059800000000088 , 
11.386399999999988 , 
-1.0134999999999887 , 
-9.925499999999975 , 
-31.573700000000112 , 
7.693999999999965 , 
1.8855000000000173 , 
-86.00879999999994 , 
-98.35559999999985 , 
-4.050800000000008 , 
27.02040000000001 , 
-20.509000000000057 , 
38.97529999999994 , 
-9.280599999999973 , 
3.1914999999999787 , 
-1.3128999999999862 , 
37.09040000000003 , 
-19.4899 , 
23.749999999999954 , 
-11.324099999999918 , 
22.277499999999964 , 
8.746699999999969 , 
16.773200000000056 , 
21.7729 , 
10.088399999999998 , 
-16.809100000000008 , 
15.586699999999965 , 
]

[
8.747999999999976 , 
-25.028899999999993 , 
-14.303000000000036 , 
40.67029999999999 , 
0.3643999999999624 , 
39.484400000000214 , 
-39.16329999999992 , 
-68.15570000000001 , 
31.265799999999928 , 
-26.985300000000006 , 
-15.83390000000002 , 
-45.85090000000002 , 
43.90189999999988 , 
1.4572000000000074 , 
-36.95750000000006 , 
-103.85880000000029 , 
8.173500000000018 , 
65.8572000000001 , 
-36.81030000000004 , 
32.36359999999997 , 
10.968199999999994 , 
-0.9194999999999718 , 
-7.560200000000091 , 
6.810099999999977 , 
-57.05080000000005 , 
16.444500000000026 , 
3.8126999999999986 , 
-18.28099999999999 , 
13.095600000000085 , 
44.81540000000002 , 
-0.5440000000000038 , 
-31.347199999999983 , 
28.381200000000153 , 
18.757900000000006 , 
-20.922500000000003 , 
0.05629999999996718 , 
-45.42510000000004 , 
3.470399999999964 , 
1.0948000000000229 , 
57.9891 , 
-9.094899999999974 , 
-8.403500000000022 , 
-28.184099999999866 , 
-3.538300000000078 , 
-11.979400000000073 , 
-9.124399999999975 , 
8.60480000000002 , 
-39.90070000000011 , 
-17.20250000000004 , 
56.35189999999992 , 
-6.677800000000083 , 
5.402799999999949 , 
4.474300000000001 , 
2.1918999999999382 , 
19.02220000000008 , 
18.4426 , 
-11.652699999999975 , 
34.684599999999996 , 
-35.495899999999985 , 
43.84720000000014 , 
-106.45519999999992 , 
21.40739999999996 , 
-14.217999999999922 , 
15.552600000000115 , 
]

[
-44.03240000000007 , 
-25.734899999999982 , 
21.211699999999933 , 
22.10600000000007 , 
-27.153599999999997 , 
-33.84480000000005 , 
-16.46100000000001 , 
40.66359999999995 , 
-6.240500000000112 , 
-37.062200000000004 , 
-3.4018000000000086 , 
10.92279999999999 , 
-11.51830000000001 , 
24.900299999999984 , 
-4.949099999999985 , 
-3.530500000000006 , 
-41.27469999999993 , 
80.29100000000035 , 
44.348400000000055 , 
-53.7549000000001 , 
-24.504499999999997 , 
-28.2414999999999 , 
-2.3667000000000495 , 
-7.7443999999999 , 
26.47259999999996 , 
8.243100000000005 , 
102.31040000000003 , 
2.03949999999998 , 
-16.00030000000011 , 
61.159200000000055 , 
3.3013999999999912 , 
-44.430199999999935 , 
-12.85120000000014 , 
-4.523000000000055 , 
9.946399999999976 , 
15.856699999999979 , 
-57.89089999999986 , 
49.53320000000001 , 
-3.8014000000000063 , 
-0.18310000000002236 , 
14.23420000000001 , 
-14.337600000000021 , 
14.418200000000057 , 
2.177200000000054 , 
-34.14310000000002 , 
-30.073700000000034 , 
-16.78459999999995 , 
35.433699999999966 , 
-44.63359999999998 , 
-11.232000000000028 , 
-56.72580000000005 , 
40.61240000000003 , 
38.28670000000013 , 
-0.9784000000000529 , 
71.11179999999992 , 
38.66969999999998 , 
-30.725900000000017 , 
39.495300000000036 , 
-16.986699999999992 , 
42.55909999999999 , 
-2.22800000000003 , 
21.67310000000009 , 
-17.17159999999996 , 
72.82269999999997 , 
]

[
62.44200000000004 , 
-8.736099999999944 , 
-91.9666000000002 , 
-51.88549999999976 , 
20.863499999999984 , 
11.94499999999995 , 
24.8055 , 
53.38809999999993 , 
-42.376300000000064 , 
-33.67899999999998 , 
-26.512199999999886 , 
26.14989999999999 , 
19.41220000000005 , 
-69.67530000000004 , 
-43.787600000000005 , 
5.079800000000008 , 
-24.25829999999997 , 
-50.22499999999991 , 
-52.54799999999994 , 
31.840099999999946 , 
41.76630000000019 , 
14.748499999999998 , 
-13.925199999999908 , 
10.634500000000036 , 
-3.653499999999984 , 
1.1415000000000068 , 
0.6517999999999704 , 
-52.0382 , 
8.038800000000004 , 
39.297799999999846 , 
-48.49339999999997 , 
15.15529999999995 , 
-43.99390000000007 , 
56.5619 , 
42.70190000000008 , 
11.644500000000097 , 
-18.97400000000004 , 
-15.032999999999976 , 
33.84650000000005 , 
3.2264999999999486 , 
-18.094599999999936 , 
-11.509599999999992 , 
43.9462999999999 , 
-47.085799999999765 , 
-38.08080000000001 , 
26.981500000000015 , 
-10.171299999999993 , 
-10.805499999999968 , 
-14.226600000000037 , 
-25.93540000000005 , 
35.93020000000006 , 
-34.79540000000013 , 
-20.53849999999999 , 
-68.16329999999988 , 
-85.85239999999979 , 
1.2994000000000026 , 
-13.632199999999987 , 
27.967399999999962 , 
40.28330000000008 , 
-2.893699999999979 , 
19.869300000000024 , 
26.93389999999992 , 
-10.913800000000005 , 
-7.980999999999986 , 
]

[
21.920099999999856 , 
-29.852799999999977 , 
-22.882700000000025 , 
4.509399999999954 , 
22.21230000000002 , 
-36.86960000000003 , 
19.716500000000064 , 
16.444300000000013 , 
19.538300000000078 , 
63.173199999999845 , 
-6.34480000000005 , 
-36.79329999999993 , 
32.33859999999992 , 
36.00870000000004 , 
15.179599999999994 , 
42.21270000000011 , 
-0.6905000000000174 , 
-55.6100000000002 , 
-10.239100000000091 , 
22.682500000000005 , 
2.7384000000000372 , 
27.143200000000004 , 
5.109499999999998 , 
23.685600000000036 , 
-42.074700000000036 , 
-77.41460000000014 , 
42.758699999999884 , 
-36.58609999999988 , 
0.1849999999999863 , 
11.360799999999985 , 
-7.532099999999949 , 
98.58169999999993 , 
30.742299999999965 , 
5.9347999999999645 , 
34.46419999999998 , 
-28.75549999999988 , 
47.93009999999995 , 
-4.642900000000018 , 
2.7480999999999915 , 
51.97959999999986 , 
6.244700000000044 , 
13.277899999999963 , 
-7.845100000000064 , 
-14.597500000000023 , 
4.394099999999917 , 
0.2977000000000054 , 
74.04300000000003 , 
-40.12599999999994 , 
-6.450000000000016 , 
-47.05209999999994 , 
55.56930000000003 , 
-57.90930000000012 , 
24.1331999999999 , 
52.57540000000002 , 
73.49669999999949 , 
-6.2313999999999865 , 
1.386500000000055 , 
-68.63330000000023 , 
-9.037400000000014 , 
-48.306500000000064 , 
19.31559999999999 , 
23.502000000000013 , 
0.3778999999999697 , 
-11.822499999999923 , 
]

[
38.46260000000006 , 
-25.146000000000015 , 
-54.394000000000034 , 
-44.04109999999999 , 
20.84219999999999 , 
-33.43910000000012 , 
-42.20260000000006 , 
14.699600000000023 , 
50.735999999999976 , 
56.300100000000015 , 
-50.399699999999974 , 
-6.770499999999977 , 
-30.332000000000015 , 
25.89389999999988 , 
14.0978 , 
-23.528299999999867 , 
35.045500000000075 , 
14.892899999999882 , 
5.878200000000067 , 
-21.133000000000035 , 
29.94090000000009 , 
52.89179999999996 , 
-18.54590000000005 , 
-107.05439999999979 , 
35.92930000000006 , 
-32.956700000000126 , 
-0.5589999999998881 , 
-22.129199999999937 , 
63.30470000000014 , 
5.985699999999909 , 
13.158200000000008 , 
-14.857800000000019 , 
8.98179999999995 , 
15.872400000000056 , 
-34.588499999999854 , 
14.19700000000003 , 
19.59339999999997 , 
-61.58130000000011 , 
13.74349999999999 , 
-47.98339999999987 , 
11.049799999999985 , 
-57.92990000000018 , 
-69.12360000000037 , 
9.39679999999999 , 
-82.55119999999991 , 
38.220400000000055 , 
36.225099999999955 , 
-11.565500000000096 , 
1.5806000000000306 , 
10.797399999999982 , 
0.8856000000000546 , 
23.656900000000004 , 
-56.960700000000166 , 
5.211100000000017 , 
-18.851399999999913 , 
26.680900000000157 , 
-33.57860000000001 , 
53.1429000000001 , 
52.21910000000004 , 
-1.9827000000000155 , 
-9.124000000000024 , 
-25.649000000000008 , 
55.77950000000012 , 
56.09610000000017 , 
]

[
-36.75460000000002 , 
26.717399999999998 , 
-50.83659999999996 , 
-79.33150000000012 , 
13.270299999999974 , 
-3.0978999999998624 , 
22.765100000000043 , 
-20.058099999999985 , 
-42.056000000000104 , 
77.5988 , 
-28.735000000000056 , 
0.22689999999996346 , 
49.70449999999999 , 
-24.204299999999964 , 
-32.24570000000004 , 
-19.87959999999988 , 
-45.30590000000004 , 
-4.283300000000001 , 
3.9877999999999925 , 
40.421199999999935 , 
30.992299999999986 , 
-26.410199999999946 , 
25.68920000000014 , 
34.178600000000024 , 
0.06119999999996517 , 
-29.02070000000002 , 
-8.644499999999942 , 
10.636999999999977 , 
14.55790000000005 , 
-23.38760000000003 , 
58.91209999999997 , 
23.476100000000013 , 
52.18300000000005 , 
50.15110000000014 , 
14.538999999999994 , 
42.17780000000008 , 
-9.88350000000002 , 
44.958300000000094 , 
19.160200000000046 , 
-17.479299999999984 , 
-13.874900000000007 , 
23.736500000000053 , 
26.035799999999934 , 
-39.07759999999984 , 
-19.65839999999993 , 
34.59020000000003 , 
-12.174999999999999 , 
-80.70449999999984 , 
-5.693899999999893 , 
33.343199999999946 , 
13.679999999999927 , 
10.435399999999923 , 
64.75760000000015 , 
-59.67690000000001 , 
-49.54049999999993 , 
-30.832600000000028 , 
33.87010000000005 , 
-63.68410000000008 , 
0.2720000000000069 , 
-71.21790000000001 , 
12.35119999999998 , 
32.99769999999999 , 
25.452300000000044 , 
32.71769999999998 , 
]

[
-9.943499999999986 , 
34.46059999999992 , 
-21.064099999999982 , 
-101.73450000000027 , 
24.835000000000015 , 
-4.279900000000011 , 
45.770799999999944 , 
-45.75040000000012 , 
42.490900000000074 , 
-40.34760000000004 , 
41.416899999999984 , 
25.177100000000014 , 
-7.160399999999909 , 
7.752899999999949 , 
-14.21500000000001 , 
-20.72650000000001 , 
-18.68910000000005 , 
23.140899999999924 , 
30.885099999999987 , 
-52.19570000000007 , 
36.72960000000002 , 
19.27599999999995 , 
29.156599999999944 , 
-12.611899999999958 , 
-64.37730000000003 , 
-18.314000000000057 , 
-23.97149999999997 , 
-20.27599999999999 , 
-34.53219999999988 , 
-35.188299999999984 , 
-24.027199999999986 , 
-16.5478000000001 , 
-19.48070000000001 , 
-41.34780000000004 , 
-23.173299999999916 , 
-3.9870999999999883 , 
40.54459999999987 , 
-11.932000000000013 , 
-11.312299999999967 , 
-107.65449999999973 , 
-56.90420000000002 , 
-12.362900000000005 , 
-29.002500000000023 , 
10.06149999999994 , 
33.233200000000046 , 
-17.82889999999996 , 
56.92090000000005 , 
-17.04119999999998 , 
48.79410000000004 , 
23.967899999999997 , 
16.490599999999983 , 
30.363699999999895 , 
31.47379999999996 , 
2.613399999999998 , 
56.01099999999993 , 
-19.766300000000022 , 
42.3598000000001 , 
38.26780000000003 , 
-23.364500000000046 , 
-1.0520999999999603 , 
67.43410000000006 , 
-39.0822000000001 , 
-7.033899999999936 , 
25.27840000000009 , 
]

[
44.1345 , 
-22.229799999999948 , 
-21.385299999999955 , 
33.906799999999954 , 
4.978500000000004 , 
-43.392800000000065 , 
-29.46120000000004 , 
25.23949999999999 , 
94.53689999999992 , 
12.148099999999962 , 
34.46920000000006 , 
27.778599999999948 , 
-3.0157000000000065 , 
-1.5730000000000088 , 
16.3921 , 
-66.61700000000002 , 
63.015700000000194 , 
66.50410000000001 , 
-101.72869999999986 , 
-1.6156999999999795 , 
51.743200000000044 , 
-25.8517 , 
-4.699399999999957 , 
59.902799999999935 , 
27.91120000000009 , 
37.74230000000004 , 
-28.810599999999955 , 
25.963500000000046 , 
53.06569999999994 , 
-50.614599999999946 , 
-1.453899999999929 , 
-21.562700000000035 , 
7.368600000000031 , 
-40.32899999999994 , 
-14.439700000000018 , 
52.53390000000014 , 
-7.350700000000021 , 
-3.37609999999996 , 
-3.1405999999999663 , 
33.895499999999956 , 
-39.16339999999992 , 
12.741699999999954 , 
-4.2540999999999976 , 
-18.495900000000017 , 
-4.390999999999958 , 
-85.0162000000003 , 
-50.136300000000105 , 
-9.052200000000008 , 
44.778299999999994 , 
-48.34279999999982 , 
-34.31379999999996 , 
-7.576099999999979 , 
-36.63410000000002 , 
56.660300000000134 , 
-2.237499999999864 , 
44.28109999999992 , 
13.317299999999982 , 
-31.665400000000016 , 
-28.40919999999996 , 
9.70540000000003 , 
-74.30390000000016 , 
11.280800000000001 , 
34.4072 , 
21.68789999999996 , 
]

[
70.8198 , 
-45.85029999999999 , 
7.271100000000023 , 
-38.43389999999998 , 
-43.48359999999998 , 
-45.614400000000074 , 
13.235499999999863 , 
-4.2943999999999685 , 
53.746599999999916 , 
18.375599999999945 , 
-6.645199999999957 , 
-16.623399999999975 , 
-13.681500000000053 , 
7.762500000000036 , 
-11.254900000000024 , 
-3.779600000000189 , 
-1.2099000000000117 , 
34.93489999999987 , 
-5.066300000000033 , 
-52.200500000000034 , 
-33.31270000000002 , 
25.997700000000062 , 
-2.1752999999999965 , 
-15.465100000000035 , 
-26.298900000000057 , 
-11.137899999999979 , 
65.52180000000001 , 
-19.430199999999914 , 
-12.576500000000003 , 
14.742400000000114 , 
93.26969999999993 , 
-22.85510000000003 , 
14.732500000000032 , 
-6.790399999999945 , 
25.375099999999993 , 
-40.538599999999995 , 
22.90580000000002 , 
44.282500000000034 , 
-47.534500000000094 , 
22.539099999999998 , 
56.09789999999993 , 
3.4743000000000275 , 
8.394699999999997 , 
-9.44489999999994 , 
-7.072399999999992 , 
2.1781999999999555 , 
32.50599999999996 , 
27.85289999999998 , 
15.837900000000072 , 
-36.60260000000005 , 
2.5351999999999775 , 
-65.09650000000022 , 
-60.556199999999954 , 
-8.861699999999985 , 
9.15509999999996 , 
-24.58680000000001 , 
-21.675799999999978 , 
17.222199999999933 , 
21.68269999999994 , 
1.3768999999999834 , 
-15.378799999999968 , 
-13.19660000000006 , 
4.016300000000003 , 
-17.738099999999957 , 
]

[
-83.33839999999998 , 
70.13680000000005 , 
30.252399999999966 , 
-35.811500000000116 , 
-24.297000000000057 , 
-8.035799999999979 , 
17.438299999999977 , 
-51.466699999999925 , 
-43.06719999999998 , 
-16.969299999999986 , 
-7.727300000000018 , 
22.54330000000027 , 
-7.294400000000052 , 
4.261000000000024 , 
22.75500000000001 , 
50.79920000000017 , 
63.11889999999997 , 
18.817499999999942 , 
28.15290000000002 , 
64.22160000000011 , 
-31.03580000000008 , 
-57.33290000000012 , 
-29.560099999999913 , 
50.826399999999964 , 
7.60430000000007 , 
-2.9630999999999785 , 
21.6205 , 
33.81910000000002 , 
9.1544 , 
-60.93939999999984 , 
-21.041299999999993 , 
-48.417200000000044 , 
50.28370000000006 , 
14.111899999999988 , 
-3.650300000000033 , 
-31.484000000000012 , 
-33.77420000000007 , 
69.54449999999983 , 
-62.63010000000001 , 
-6.548799999999999 , 
-3.658100000000031 , 
-14.494200000000054 , 
77.50769999999979 , 
-28.09159999999997 , 
82.5776 , 
-18.148599999999995 , 
21.242599999999978 , 
53.39060000000004 , 
-20.85550000000005 , 
-23.419599999999992 , 
-2.3932000000000606 , 
27.29020000000004 , 
-30.909899999999976 , 
-12.93340000000011 , 
-39.886600000000016 , 
-11.726799999999919 , 
18.94459999999994 , 
-33.59420000000021 , 
27.114300000000007 , 
26.71839999999999 , 
34.95170000000005 , 
31.85229999999996 , 
54.77130000000006 , 
-52.855600000000024 , 
]

[
11.859100000000016 , 
-13.177699999999982 , 
-5.6711999999999945 , 
-13.968000000000119 , 
31.480200000000032 , 
-64.24679999999991 , 
-31.023000000000096 , 
33.48909999999996 , 
13.839099999999988 , 
-27.957600000000163 , 
-46.10829999999999 , 
-13.829200000000062 , 
31.192300000000063 , 
-15.772700000000116 , 
35.80860000000003 , 
-43.75499999999995 , 
9.582200000000054 , 
31.033400000000068 , 
-29.00420000000012 , 
25.160999999999966 , 
24.687700000000017 , 
5.41799999999999 , 
-16.66710000000002 , 
20.321500000000064 , 
-9.94300000000003 , 
-36.650699999999965 , 
54.174799999999955 , 
29.849899999999998 , 
-64.98959999999988 , 
6.433599999999965 , 
-57.154399999999924 , 
-1.0043999999999824 , 
-1.9641999999999662 , 
-18.529300000000024 , 
34.93470000000006 , 
-32.442300000000046 , 
-40.98730000000004 , 
64.87490000000001 , 
18.013199999999888 , 
-39.79240000000021 , 
-2.041600000000007 , 
-53.84919999999989 , 
47.502799999999986 , 
-24.175799999999935 , 
-59.34730000000006 , 
-32.20699999999995 , 
-55.21330000000006 , 
5.194499999999999 , 
68.83019999999979 , 
8.686400000000114 , 
20.138500000000004 , 
14.543700000000012 , 
-16.94680000000003 , 
-38.71669999999995 , 
19.74590000000005 , 
-17.52809999999999 , 
-27.59899999999998 , 
22.950799999999962 , 
-6.076899999999975 , 
-28.70459999999998 , 
-6.7695000000000265 , 
88.24009999999981 , 
19.44070000000006 , 
-45.26989999999998 , 
]

[
4.326400000000033 , 
-85.64770000000014 , 
55.52569999999993 , 
-9.426400000000054 , 
9.96959999999999 , 
-23.389200000000017 , 
-27.129000000000026 , 
-17.641199999999895 , 
-8.573900000000013 , 
56.24399999999999 , 
-18.864200000000096 , 
15.717999999999742 , 
-59.68249999999991 , 
15.69299999999999 , 
0.30039999999998557 , 
23.783300000000033 , 
-22.474900000000066 , 
-1.6654000000000189 , 
8.182000000000023 , 
8.538800000000034 , 
-66.61349999999997 , 
-1.3621000000000147 , 
2.0561999999999503 , 
12.47719999999996 , 
17.53840000000005 , 
23.96799999999997 , 
57.73279999999995 , 
50.511000000000124 , 
1.6759000000000026 , 
7.248500000000018 , 
-46.83839999999978 , 
74.93100000000001 , 
-57.634400000000134 , 
-70.57920000000001 , 
31.11500000000006 , 
-41.47879999999992 , 
-55.72289999999998 , 
-14.067699999999938 , 
47.58950000000001 , 
-22.173999999999975 , 
10.219899999999999 , 
1.298399999999946 , 
-5.23890000000001 , 
-40.17260000000004 , 
-50.638799999999996 , 
-13.376699999999996 , 
-30.445999999999987 , 
-25.97600000000001 , 
5.72999999999999 , 
-50.2286000000001 , 
-15.629099999999882 , 
-18.813500000000072 , 
-27.054999999999943 , 
-40.26570000000009 , 
-30.982899999999994 , 
-9.729899999999986 , 
36.2321 , 
-68.23910000000006 , 
-15.84740000000003 , 
-48.116999999999884 , 
-7.535699999999978 , 
41.589900000000036 , 
-62.48190000000009 , 
-69.3562999999998 , 
]

[
-25.365799999999947 , 
0.616300000000045 , 
-19.813799999999993 , 
-40.31890000000002 , 
52.44690000000011 , 
3.4758000000000555 , 
4.09379999999998 , 
21.63930000000003 , 
43.79129999999988 , 
-8.888499999999992 , 
22.154099999999996 , 
-2.285999999999921 , 
-15.859600000000011 , 
44.76690000000004 , 
14.408099999999964 , 
-32.17000000000004 , 
-3.6576999999999513 , 
-39.15349999999984 , 
54.789900000000145 , 
1.1059000000000139 , 
-52.790900000000065 , 
27.66509999999996 , 
64.58490000000015 , 
-66.26260000000002 , 
59.812800000000095 , 
61.07650000000006 , 
-0.39160000000006334 , 
-38.28939999999991 , 
48.76689999999995 , 
47.99439999999997 , 
-19.76629999999996 , 
-3.447399999999962 , 
-94.8976000000001 , 
5.201300000000137 , 
16.009399999999985 , 
-8.634500000000042 , 
34.77679999999997 , 
68.33770000000018 , 
10.376600000000062 , 
-61.03259999999999 , 
6.284399999999989 , 
16.950200000000063 , 
-25.264000000000028 , 
72.17650000000023 , 
75.68170000000019 , 
-66.55449999999995 , 
56.19599999999988 , 
14.317199999999971 , 
-29.190000000000023 , 
8.690400000000047 , 
-18.948500000000042 , 
-2.9136000000000273 , 
-23.054200000000005 , 
-36.50390000000022 , 
-12.605899999999984 , 
72.15899999999989 , 
-26.822300000000013 , 
36.67610000000013 , 
-10.570299999999918 , 
85.69049999999987 , 
-57.926799999999965 , 
-9.252600000000005 , 
19.932499999999916 , 
-48.42609999999993 , 
]

[
-17.885800000000042 , 
49.62290000000002 , 
13.489299999999997 , 
-21.980199999999954 , 
-27.83330000000004 , 
10.468600000000016 , 
-14.102399999999992 , 
6.062100000000026 , 
48.148699999999984 , 
26.008999999999965 , 
-15.11079999999999 , 
-1.6435999999999744 , 
66.57149999999997 , 
14.128399999999942 , 
18.403299999999987 , 
-13.088700000000033 , 
-25.775599999999763 , 
36.1882999999999 , 
3.063700000000011 , 
71.39620000000004 , 
26.860000000000046 , 
-52.467099999999874 , 
-14.253900000000012 , 
-48.679300000000026 , 
5.816999999999997 , 
-27.006799999999988 , 
-8.153100000000029 , 
5.33170000000014 , 
48.68010000000014 , 
6.462299999999995 , 
-24.213700000000006 , 
-74.20869999999994 , 
-60.32770000000005 , 
56.62530000000001 , 
5.653100000000066 , 
-42.10110000000015 , 
-8.306999999999984 , 
-62.04189999999995 , 
-9.146199999999947 , 
24.90309999999998 , 
30.49379999999999 , 
-29.722300000000104 , 
-48.58610000000003 , 
-39.184900000000056 , 
16.10110000000004 , 
24.156999999999947 , 
-3.750599999999997 , 
-46.93779999999986 , 
-2.004200000000014 , 
-45.76819999999988 , 
32.29970000000002 , 
-67.23470000000003 , 
25.097499999999975 , 
41.192500000000024 , 
44.076100000000146 , 
-11.489999999999972 , 
10.431900000000029 , 
37.16919999999983 , 
50.30620000000003 , 
32.81509999999996 , 
-13.832899999999986 , 
-2.347899999999934 , 
-101.12659999999971 , 
56.526799999999874 , 
]

[
39.33510000000001 , 
6.96529999999989 , 
-4.6240000000000245 , 
15.07080000000003 , 
-32.734700000000004 , 
42.62299999999993 , 
-39.139600000000016 , 
-25.620800000000074 , 
26.108700000000074 , 
10.590400000000054 , 
-17.45400000000007 , 
-27.082800000000052 , 
37.05219999999995 , 
54.44689999999992 , 
2.7475999999999403 , 
14.571700000000005 , 
3.526800000000023 , 
5.455200000000016 , 
34.12710000000005 , 
-69.18929999999986 , 
-44.01780000000008 , 
-61.93819999999978 , 
27.13580000000005 , 
14.93269999999997 , 
20.020000000000078 , 
-86.52019999999986 , 
-32.89260000000021 , 
-44.58110000000005 , 
20.275199999999998 , 
1.0157000000000238 , 
29.479499999999998 , 
-46.52519999999993 , 
38.26690000000008 , 
-24.356499999999908 , 
1.4487000000001118 , 
4.781999999999984 , 
57.05110000000015 , 
10.10700000000001 , 
14.349699999999972 , 
26.197800000000086 , 
-2.4727000000000015 , 
-14.444000000000006 , 
-66.21749999999984 , 
41.507400000000004 , 
-55.56750000000007 , 
-30.987499999999986 , 
-6.838700000000034 , 
-10.093299999999989 , 
-47.645599999999995 , 
-27.15810000000007 , 
31.362799999999996 , 
28.20369999999984 , 
-41.65350000000006 , 
-3.420800000000028 , 
-31.20259999999992 , 
32.879800000000046 , 
-56.641000000000005 , 
-55.2181 , 
0.3176000000000271 , 
12.837300000000008 , 
14.688399999999975 , 
-0.5441999999999413 , 
30.286999999999956 , 
27.35010000000003 , 
]

[
-43.32890000000017 , 
-37.097100000000026 , 
-24.377200000000045 , 
-28.581099999999992 , 
-75.8371000000002 , 
13.404400000000026 , 
-0.42900000000001015 , 
18.344599999999954 , 
-14.003499999999873 , 
-32.55090000000016 , 
11.361499999999943 , 
-0.8273000000000024 , 
-11.281200000000052 , 
25.28590000000009 , 
-14.937199999999997 , 
-0.6666999999999973 , 
-26.788399999999996 , 
-12.943500000000013 , 
47.7455000000001 , 
-8.630500000000001 , 
-10.863999999999976 , 
6.37070000000003 , 
-13.749500000000022 , 
0.8239999999999916 , 
-44.18789999999996 , 
-33.1372999999997 , 
-6.711099999999977 , 
-7.207500000000024 , 
1.7214000000000271 , 
23.201699999999974 , 
-53.97809999999986 , 
25.97130000000005 , 
-16.95799999999999 , 
29.34470000000002 , 
-45.777599999999936 , 
-66.41439999999994 , 
-75.14410000000008 , 
-56.20400000000007 , 
-43.18190000000002 , 
-48.1347000000001 , 
42.92050000000016 , 
21.92550000000008 , 
-123.66770000000028 , 
12.387800000000004 , 
3.9919000000000615 , 
-3.2873999999999817 , 
-16.096700000000023 , 
31.215099999999953 , 
-11.493099999999966 , 
-33.57590000000001 , 
-50.8641999999999 , 
26.4327 , 
25.11230000000004 , 
21.04200000000003 , 
54.418200000000155 , 
-40.90549999999994 , 
-74.74339999999984 , 
-64.83640000000013 , 
22.537799999999994 , 
0.7576999999999918 , 
83.01610000000015 , 
2.248400000000023 , 
55.02369999999999 , 
24.300400000000028 , 
]

[
-14.899499999999996 , 
26.720499999999973 , 
-84.36820000000026 , 
-27.263199999999912 , 
-12.63390000000004 , 
12.930899999999939 , 
22.1551 , 
-22.920299999999962 , 
-35.88170000000003 , 
-23.89150000000005 , 
9.249099999999986 , 
37.67909999999986 , 
-14.139699999999946 , 
-42.7376000000001 , 
-49.75899999999993 , 
-68.3330999999999 , 
53.319500000000005 , 
38.33429999999993 , 
14.109100000000044 , 
-26.486100000000025 , 
21.050600000000035 , 
-43.68320000000004 , 
15.705099999999804 , 
-47.20299999999987 , 
-56.90589999999973 , 
-30.701300000000018 , 
-6.862600000000004 , 
40.16639999999991 , 
-11.949500000000024 , 
28.413900000000012 , 
-12.377899999999972 , 
10.21770000000002 , 
34.62629999999996 , 
-18.37179999999996 , 
-24.34530000000003 , 
10.923099999999835 , 
-27.033000000000158 , 
12.029599999999997 , 
-36.80439999999997 , 
-29.621899999999982 , 
33.098200000000006 , 
-24.747899999999987 , 
10.589500000000008 , 
-8.65259999999997 , 
-6.199700000000016 , 
-38.311799999999984 , 
25.33280000000002 , 
-18.25389999999994 , 
-5.058400000000051 , 
35.24810000000001 , 
2.023200000000013 , 
-12.741100000000019 , 
18.181500000000035 , 
-70.82100000000017 , 
-8.027500000000082 , 
31.42570000000008 , 
39.29540000000001 , 
-11.891900000000032 , 
19.21110000000003 , 
46.79450000000001 , 
2.675100000000043 , 
-38.98860000000009 , 
1.245600000000035 , 
4.35890000000009 , 
]

[
-63.366000000000014 , 
11.940500000000013 , 
37.465300000000006 , 
-12.502000000000002 , 
10.615599999999974 , 
56.64329999999993 , 
14.456999999999999 , 
13.146699999999973 , 
-52.504600000000025 , 
10.947699999999964 , 
-3.3554000000001825 , 
5.8033999999999555 , 
45.65530000000014 , 
27.90929999999998 , 
-18.51220000000007 , 
-20.920699999999968 , 
-57.30039999999985 , 
-28.833499999999916 , 
-1.2572999999999093 , 
-37.7604000000001 , 
6.554899999999992 , 
3.979900000000017 , 
-29.56540000000005 , 
18.64330000000006 , 
18.9314 , 
24.060399999999927 , 
1.653500000000094 , 
2.187299999999994 , 
51.94789999999999 , 
-41.75419999999996 , 
-0.18330000000005264 , 
-13.662099999999954 , 
-53.2704999999999 , 
44.46449999999996 , 
-48.632 , 
-10.946200000000019 , 
12.28129999999997 , 
73.44089999999994 , 
-1.261800000000007 , 
55.17650000000004 , 
-88.06070000000005 , 
-6.712599999999977 , 
4.214899999999981 , 
-22.040599999999998 , 
29.176899999999918 , 
18.02440000000008 , 
6.248899999999957 , 
-64.77960000000002 , 
86.91230000000013 , 
-47.129800000000024 , 
17.712599999999984 , 
16.46670000000009 , 
3.424700000000005 , 
-40.0082 , 
11.179200000000018 , 
-19.02300000000003 , 
40.94130000000001 , 
15.570900000000039 , 
39.01430000000001 , 
95.39330000000018 , 
110.09860000000005 , 
38.43580000000002 , 
13.908199999999997 , 
-12.797500000000014 , 
]

[
-70.34310000000004 , 
31.35100000000003 , 
33.51239999999996 , 
17.25670000000002 , 
-9.685699999999898 , 
20.544200000000014 , 
37.76329999999991 , 
-22.513800000000167 , 
-55.7287 , 
-14.012000000000143 , 
-4.221300000000014 , 
9.041999999999993 , 
19.274000000000033 , 
-11.449800000000018 , 
-4.146900000000005 , 
3.460500000000019 , 
-25.90640000000001 , 
-5.757100000000018 , 
-31.09370000000002 , 
-17.232600000000016 , 
-37.47899999999996 , 
15.131800000000048 , 
19.313300000000062 , 
-20.5804 , 
-17.86750000000004 , 
53.324899999999936 , 
-19.19720000000011 , 
10.887599999999994 , 
47.9192 , 
75.01379999999988 , 
3.848999999999981 , 
7.8324999999998886 , 
-7.8383999999999805 , 
-9.736499999999955 , 
-15.775599999999926 , 
53.14710000000002 , 
-19.699799999999946 , 
3.8973000000000337 , 
-37.79090000000005 , 
-11.182099999999991 , 
-70.06560000000029 , 
11.762000000000112 , 
-38.59609999999998 , 
-40.42749999999991 , 
-38.10249999999998 , 
-42.2583 , 
50.76630000000022 , 
47.128899999999895 , 
10.902300000000007 , 
26.299800000000022 , 
43.76649999999991 , 
-10.149000000000008 , 
66.47860000000006 , 
-51.54099999999998 , 
-37.76049999999993 , 
-39.91590000000008 , 
18.378900000000048 , 
3.3049999999999664 , 
9.563000000000073 , 
-17.723800000000015 , 
81.6298999999998 , 
40.89110000000007 , 
-59.157499999999814 , 
73.77739999999994 , 
]

[
-18.53720000000007 , 
9.083899999999984 , 
16.744199999999978 , 
-28.67000000000001 , 
-12.009299999999948 , 
15.579400000000092 , 
-35.991599999999934 , 
11.710200000000054 , 
-31.270499999999995 , 
-0.9801000000000405 , 
-36.66609999999997 , 
-23.24089999999999 , 
-25.387999999999863 , 
-25.7905 , 
-23.85829999999998 , 
21.187999999999978 , 
18.380299999999995 , 
-42.503299999999996 , 
-24.986100000000054 , 
-15.74179999999996 , 
-36.43159999999985 , 
34.24979999999999 , 
-16.198799999999988 , 
22.481000000000005 , 
19.33790000000002 , 
18.758400000000044 , 
-16.678999999999967 , 
11.7626 , 
-22.277600000000096 , 
9.618499999999997 , 
-8.971100000000057 , 
-51.61849999999997 , 
-3.6151999999999758 , 
-86.0270999999999 , 
28.949100000000083 , 
-7.168299999999973 , 
-3.721900000000003 , 
13.931500000000002 , 
37.78429999999975 , 
33.89880000000011 , 
25.61430000000002 , 
12.591899999999946 , 
-75.7258000000002 , 
-65.84830000000005 , 
-14.717900000000052 , 
-4.839499999999955 , 
59.1292000000002 , 
-7.314999999999976 , 
-102.30009999999947 , 
54.62250000000002 , 
19.519599999999954 , 
37.53239999999999 , 
-49.4872999999998 , 
-29.77450000000007 , 
-67.73539999999977 , 
-1.5257999999999512 , 
44.61170000000002 , 
93.8154 , 
33.214500000000086 , 
79.01279999999996 , 
42.69299999999995 , 
53.48240000000007 , 
-28.77239999999999 , 
48.86339999999994 , 
]

[
20.740499999999987 , 
71.62679999999993 , 
-49.43100000000006 , 
2.929800000000046 , 
12.322399999999996 , 
-66.04789999999991 , 
29.53300000000001 , 
51.507900000000014 , 
-47.17670000000005 , 
25.169399999999982 , 
-40.58639999999999 , 
-9.224799999999956 , 
-15.016499999999949 , 
-25.753500000000027 , 
11.065299999999942 , 
-15.44760000000004 , 
-59.65339999999993 , 
-28.204500000000042 , 
-14.652299999999933 , 
21.80359999999997 , 
-34.48359999999998 , 
15.517999999999999 , 
26.800099999999983 , 
6.937700000000047 , 
-40.36439999999984 , 
-38.00779999999996 , 
-8.06770000000001 , 
59.31699999999991 , 
-1.3769999999999796 , 
-19.867600000000046 , 
6.758399999999967 , 
-47.960599999999914 , 
-67.43030000000024 , 
-0.09800000000006281 , 
49.27850000000007 , 
52.032100000000014 , 
49.57639999999994 , 
-35.58949999999997 , 
-0.03929999999999689 , 
-0.4574999999999918 , 
17.001599999999964 , 
33.93420000000009 , 
23.984300000000122 , 
16.445100000000043 , 
-19.334999999999965 , 
19.669600000000045 , 
39.98100000000008 , 
6.824799999999965 , 
-17.2794999999999 , 
26.807999999999975 , 
-9.208099999999982 , 
89.57910000000025 , 
10.85690000000003 , 
-4.463799999999972 , 
-76.07259999999985 , 
-67.98680000000016 , 
94.7095 , 
-32.58460000000003 , 
7.021199999999968 , 
-18.39150000000008 , 
21.119200000000014 , 
-50.92270000000004 , 
-6.636599999999904 , 
0.11359999999999781 , 
]

[
-21.1444 , 
14.501799999999971 , 
89.82569999999981 , 
-13.536099999999964 , 
19.536099999999976 , 
3.7125000000000328 , 
26.97340000000002 , 
-23.26319999999997 , 
-35.30479999999978 , 
-43.918900000000086 , 
25.419499999999925 , 
16.158800000000014 , 
69.56759999999998 , 
35.94389999999995 , 
13.555599999999982 , 
64.82240000000014 , 
7.410100000000034 , 
55.46050000000001 , 
-0.7676999999999714 , 
-74.92020000000016 , 
-32.11630000000013 , 
2.9445000000000094 , 
-48.15389999999997 , 
-3.0013000000000467 , 
84.93980000000013 , 
-53.50189999999977 , 
-26.61180000000007 , 
-44.6261999999999 , 
-6.6550000000000145 , 
-22.32969999999999 , 
20.531999999999925 , 
3.223799999999984 , 
49.894400000000076 , 
22.146099999999947 , 
-37.797499999999985 , 
56.98219999999998 , 
-8.124600000000022 , 
-34.125 , 
8.568200000000006 , 
-5.320700000000104 , 
-8.675499999999847 , 
7.2961000000000205 , 
-62.84030000000006 , 
-7.490000000000004 , 
-44.25829999999994 , 
-24.956900000000076 , 
-25.06710000000002 , 
24.635400000000057 , 
22.031599999999997 , 
3.618799999999903 , 
5.376899999999989 , 
-41.130700000000125 , 
19.565500000000064 , 
-30.942600000000134 , 
29.55750000000012 , 
-65.53730000000006 , 
30.856999999999903 , 
-10.427599999999863 , 
30.96919999999997 , 
-8.759600000000004 , 
-55.74110000000003 , 
62.20199999999987 , 
14.67580000000001 , 
21.955800000000046 , 
]

[
-14.448800000000002 , 
25.002200000000084 , 
8.558200000000008 , 
75.60149999999982 , 
-35.231299999999905 , 
24.284699999999965 , 
65.9246000000001 , 
7.723200000000048 , 
-18.739100000000086 , 
-11.321499999999983 , 
-13.207200000000022 , 
4.914600000000052 , 
-55.30610000000002 , 
12.339299999999998 , 
101.86810000000003 , 
1.0065999999999167 , 
25.090200000000014 , 
74.40479999999982 , 
-16.152 , 
-22.355499999999935 , 
69.60010000000018 , 
5.170099999999939 , 
-61.29289999999981 , 
-11.18150000000002 , 
3.1778999999999757 , 
-39.06919999999994 , 
43.567699999999896 , 
33.05770000000002 , 
-7.096300000000034 , 
-6.020000000000061 , 
21.55529999999996 , 
27.674000000000035 , 
-34.74629999999997 , 
22.470500000000083 , 
36.27750000000001 , 
-49.841900000000145 , 
56.710000000000115 , 
60.99559999999982 , 
39.26120000000001 , 
40.578800000000136 , 
-37.471500000000084 , 
24.63870000000004 , 
-50.267499999999856 , 
-21.411099999999998 , 
9.34329999999989 , 
7.504400000000008 , 
0.3086000000000535 , 
-16.379000000000012 , 
64.43070000000016 , 
18.46460000000002 , 
-22.215199999999943 , 
45.626599999999925 , 
21.448799999999956 , 
10.899400000000025 , 
-23.737400000000033 , 
-31.896999999999892 , 
15.446300000000155 , 
-13.826000000000025 , 
45.80659999999996 , 
29.607100000000095 , 
-24.88919999999988 , 
5.483999999999975 , 
16.38590000000001 , 
-55.12810000000009 , 
]

[
-45.32190000000012 , 
-38.8763 , 
7.351399999999982 , 
51.28760000000002 , 
23.632700000000003 , 
51.18300000000018 , 
-50.836900000000085 , 
27.483599999999907 , 
-52.38149999999984 , 
-8.68009999999998 , 
16.25799999999999 , 
29.63419999999987 , 
21.613300000000127 , 
-14.120000000000006 , 
-20.413499999999946 , 
32.35760000000004 , 
-62.93749999999998 , 
-10.236699999999956 , 
-2.5763000000000904 , 
-11.257200000000003 , 
-48.00200000000002 , 
-20.88480000000005 , 
-17.815699999999993 , 
-11.168599999999946 , 
-53.21479999999999 , 
-38.12910000000003 , 
-11.990399999999974 , 
38.54949999999996 , 
-57.406899999999986 , 
40.30599999999995 , 
27.962799999999973 , 
-17.289600000000046 , 
71.3167999999999 , 
-31.85530000000004 , 
-32.890299999999975 , 
19.490300000000023 , 
51.4274999999999 , 
33.61749999999995 , 
35.04120000000002 , 
5.411699999999954 , 
-22.559700000000017 , 
33.49629999999991 , 
-43.13719999999999 , 
20.45899999999996 , 
-47.44010000000015 , 
-18.466600000000057 , 
-8.982700000000026 , 
1.0413000000000718 , 
-18.735499999999988 , 
43.41730000000013 , 
12.320299999999959 , 
22.83710000000002 , 
17.842099999999945 , 
34.368199999999874 , 
10.02589999999999 , 
-33.37450000000005 , 
-2.165199999999983 , 
-33.48380000000003 , 
60.20480000000003 , 
-19.898200000000056 , 
51.43300000000011 , 
-3.510199999999947 , 
-18.06699999999995 , 
-33.504300000000036 , 
]

[
-38.211599999999976 , 
39.13170000000003 , 
-1.1347999999999803 , 
8.590199999999939 , 
-13.897599999999999 , 
-19.930900000000026 , 
5.895800000000012 , 
58.28390000000019 , 
-6.9602999999999975 , 
6.071400000000001 , 
15.945400000000015 , 
56.47129999999983 , 
-7.969999999999986 , 
0.914700000000064 , 
-19.80639999999999 , 
27.524999999999945 , 
9.114599999999982 , 
51.464400000000055 , 
14.933300000000008 , 
20.55669999999984 , 
46.49669999999994 , 
-11.129800000000047 , 
36.04180000000001 , 
-55.92889999999997 , 
-77.27470000000012 , 
-49.56090000000005 , 
-61.47500000000025 , 
0.877799999999902 , 
-30.7211999999999 , 
-0.9053000000000461 , 
12.840099999999968 , 
17.456000000000007 , 
75.01730000000016 , 
23.650799999999997 , 
-17.277100000000022 , 
-79.76299999999986 , 
-7.020499999999985 , 
-10.59830000000001 , 
-14.640399999999943 , 
39.02059999999989 , 
33.44989999999997 , 
-13.491999999999969 , 
-67.24529999999997 , 
10.431999999999983 , 
-27.626599999999957 , 
-6.233300000000005 , 
-36.62449999999997 , 
35.17329999999998 , 
-3.739000000000015 , 
6.762000000000043 , 
-23.45759999999996 , 
10.195099999999924 , 
7.161699999999943 , 
-4.480599999999946 , 
56.69150000000012 , 
25.710400000000035 , 
-15.862300000000037 , 
1.4710999999999876 , 
24.994099999999968 , 
-15.736099999999999 , 
7.594099999999965 , 
4.823499999999954 , 
-32.65650000000001 , 
54.51280000000011 , 
]

[
27.87249999999993 , 
3.945800000000081 , 
36.52409999999994 , 
66.10019999999994 , 
100.6755 , 
-9.282700000000037 , 
4.306299999999966 , 
-19.31889999999997 , 
-0.7960999999999188 , 
20.423400000000157 , 
-46.98080000000039 , 
-46.38939999999994 , 
26.864600000000035 , 
56.45030000000003 , 
13.179999999999911 , 
-3.631300000000006 , 
-12.778299999999975 , 
36.617800000000116 , 
1.009900000000065 , 
-38.7134 , 
29.102499999999935 , 
69.66159999999996 , 
60.06909999999984 , 
-33.47020000000001 , 
43.90620000000003 , 
24.467899999999975 , 
38.042700000000046 , 
8.916899999999966 , 
-14.094799999999976 , 
3.9872000000000054 , 
10.638299999999973 , 
-31.06970000000006 , 
-18.08049999999999 , 
-40.76509999999987 , 
-40.65980000000002 , 
2.0812000000000186 , 
47.89189999999998 , 
-19.419500000000074 , 
-21.524499999999925 , 
10.128099999999986 , 
14.620799999999987 , 
42.84889999999987 , 
10.669000000000043 , 
-26.408500000000007 , 
13.978900000000035 , 
-86.73309999999988 , 
-36.298799999999986 , 
-25.15139999999994 , 
-5.416500000000012 , 
-28.901099999999953 , 
-21.406000000000045 , 
13.572900000000043 , 
-1.9557000000003166 , 
34.00169999999999 , 
-15.25920000000001 , 
48.150599999999955 , 
-36.716499999999975 , 
-29.74109999999976 , 
50.43949999999977 , 
70.8905 , 
-50.20830000000006 , 
-26.121400000000037 , 
-9.378000000000021 , 
1.6844000000000579 , 
]

[
-2.344900000000037 , 
-33.67239999999998 , 
38.0468999999999 , 
-9.649500000000026 , 
-46.95229999999997 , 
-58.29040000000006 , 
20.18189999999987 , 
17.730400000000095 , 
44.204900000000094 , 
-29.345800000000068 , 
6.906100000000052 , 
-4.541600000000019 , 
38.54400000000009 , 
77.48020000000011 , 
4.955700000000023 , 
3.8162000000000793 , 
1.3659000000000006 , 
-58.199099999999945 , 
46.19870000000001 , 
-9.615699999999997 , 
-23.039900000000088 , 
12.479699999999983 , 
16.070400000000074 , 
12.476299999999998 , 
38.5898999999998 , 
54.862199999999945 , 
-10.963299999999954 , 
-30.570499999999914 , 
-44.11019999999999 , 
-60.8513 , 
21.2476 , 
-6.277599999999999 , 
-45.78309999999999 , 
25.438199999999988 , 
-48.99879999999992 , 
33.55070000000009 , 
-17.194300000000048 , 
16.108799999999977 , 
41.76229999999996 , 
4.243799999999997 , 
50.157299999999935 , 
67.95660000000004 , 
-14.055199999999965 , 
-6.606199999999953 , 
5.01980000000007 , 
0.7856999999999947 , 
98.48889999999982 , 
-17.478599999999993 , 
-59.51130000000004 , 
-62.825999999999965 , 
14.7647000000001 , 
4.25969999999999 , 
-14.97030000000002 , 
62.89919999999989 , 
17.462900000000065 , 
89.76739999999998 , 
68.54260000000022 , 
-30.549100000000116 , 
38.84569999999997 , 
-49.9798000000001 , 
-55.55060000000006 , 
-33.18840000000003 , 
76.77070000000018 , 
-52.155299999999926 , 
]

[
34.728300000000026 , 
64.7840999999999 , 
-6.617200000000045 , 
44.97520000000003 , 
7.627399999999949 , 
5.912700000000024 , 
16.78389999999999 , 
-25.09610000000003 , 
-21.574400000000054 , 
41.31470000000004 , 
62.42560000000002 , 
14.190699999999977 , 
36.78400000000002 , 
19.51140000000003 , 
-38.92610000000007 , 
6.081100000000021 , 
-11.351299999999934 , 
16.967300000000012 , 
2.161200000000019 , 
-9.090499999999988 , 
50.21719999999995 , 
-70.93320000000003 , 
-61.39280000000005 , 
-23.212900000000005 , 
19.56309999999998 , 
84.50839999999985 , 
23.19930000000001 , 
62.331100000000085 , 
-5.6173000000000135 , 
-15.22069999999998 , 
-30.253400000000024 , 
-47.43780000000013 , 
-33.32379999999993 , 
-33.038999999999966 , 
15.977299999999978 , 
-73.32049999999988 , 
26.90450000000001 , 
-16.048599999999986 , 
9.598199999999956 , 
-4.916500000000047 , 
-39.0664999999999 , 
6.286799999999941 , 
-49.73989999999997 , 
7.244799999999997 , 
74.96370000000006 , 
-9.011600000000007 , 
-14.344099999999909 , 
-35.41150000000009 , 
-1.200700000000047 , 
39.83859999999993 , 
-2.7083999999999517 , 
-19.592200000000016 , 
-1.8967000000000218 , 
-50.249599999999965 , 
33.47800000000005 , 
-23.728799999999946 , 
88.55440000000003 , 
29.471099999999957 , 
-11.589999999999991 , 
2.0003000000000233 , 
-12.122200000000028 , 
94.74799999999986 , 
3.947299999999961 , 
10.883999999999977 , 
]

[
44.50129999999997 , 
2.334999999999996 , 
-11.030299999999958 , 
13.14039999999999 , 
-74.40479999999988 , 
-0.4365000000000579 , 
-61.21890000000011 , 
1.9038999999999833 , 
-1.3295000000000154 , 
-27.04699999999997 , 
30.089100000000073 , 
5.975000000000046 , 
-29.374499999999863 , 
-14.755299999999991 , 
-60.948900000000165 , 
19.13729999999992 , 
16.21439999999998 , 
24.070799999999952 , 
-25.073999999999998 , 
-33.81809999999999 , 
26.07969999999995 , 
-23.484600000000036 , 
5.3368000000000295 , 
26.77019999999998 , 
37.63219999999999 , 
-8.375799999999993 , 
-12.493900000000057 , 
-28.26240000000002 , 
19.74209999999998 , 
-45.26640000000016 , 
33.92560000000002 , 
-14.170899999999806 , 
50.7787 , 
16.58710000000004 , 
2.338000000000017 , 
7.838399999999932 , 
60.76419999999986 , 
-14.290900000000057 , 
31.743800000000036 , 
-34.95240000000002 , 
12.849199999999978 , 
72.1290999999998 , 
-27.563899999999965 , 
-74.42390000000016 , 
-16.313200000000005 , 
4.4353999999999605 , 
109.63269999999986 , 
0.6699999999999531 , 
-52.02420000000003 , 
-19.72150000000006 , 
-26.932599999999976 , 
2.466799999999989 , 
57.93060000000003 , 
10.745199999999947 , 
59.3993 , 
-25.38859999999995 , 
-58.48550000000003 , 
30.271800000000006 , 
18.876299999999944 , 
65.45370000000008 , 
-48.20319999999996 , 
-24.47520000000004 , 
13.692600000000008 , 
-11.426199999999973 , 
]

[
-7.091899999999973 , 
12.016600000000036 , 
19.662700000000005 , 
-46.82140000000017 , 
24.079800000000052 , 
46.15420000000023 , 
-51.57210000000004 , 
53.50670000000007 , 
3.4616999999999893 , 
-33.48500000000005 , 
10.246500000000024 , 
37.07350000000017 , 
-23.997900000000143 , 
103.93410000000058 , 
-37.78969999999982 , 
32.65839999999998 , 
27.321399999999993 , 
44.95039999999986 , 
-13.8372000000001 , 
6.2007999999999965 , 
-12.024699999999992 , 
-31.491599999999984 , 
-5.73229999999996 , 
-78.21210000000002 , 
-35.01070000000002 , 
75.10769999999964 , 
41.10499999999999 , 
26.803599999999946 , 
-36.019300000000015 , 
-45.174799999999934 , 
-18.696099999999944 , 
-32.39060000000008 , 
-85.70040000000013 , 
27.227800000000048 , 
-16.379100000000083 , 
-32.517400000000045 , 
0.95389999999997 , 
-24.017700000000044 , 
35.255999999999986 , 
-0.6043999999999766 , 
-19.939199999999996 , 
-25.761900000000008 , 
17.163200000000025 , 
-39.06820000000008 , 
4.189600000000089 , 
28.85359999999996 , 
28.16370000000005 , 
-12.094400000000004 , 
-13.823100000000002 , 
67.33350000000023 , 
-70.81049999999993 , 
25.951200000000092 , 
-36.398899999999955 , 
25.110299999999988 , 
11.877500000000008 , 
-30.011099999999963 , 
25.025899999999922 , 
-4.803300000000027 , 
-9.615800000000098 , 
3.9071000000000264 , 
-17.42 , 
-5.573600000000004 , 
14.644800000000027 , 
-15.939399999999969 , 
]

[
79.84150000000021 , 
32.57160000000002 , 
11.769200000000055 , 
2.1511999999999314 , 
-69.31430000000003 , 
-16.774200000000043 , 
23.280200000000033 , 
-8.864299999999941 , 
20.782099999999943 , 
1.9954000000000005 , 
11.096800000000048 , 
-97.79979999999972 , 
76.01049999999996 , 
-6.506800000000016 , 
-52.071 , 
44.33179999999995 , 
-71.44900000000003 , 
-14.2802 , 
-42.172000000000075 , 
22.5595 , 
-16.00390000000009 , 
45.31619999999994 , 
84.14220000000009 , 
-6.850999999999982 , 
-18.135599999999993 , 
-9.426599999999997 , 
-0.9486000000000085 , 
22.698000000000036 , 
-41.40890000000001 , 
21.992000000000004 , 
-47.0010999999998 , 
50.29609999999994 , 
38.83090000000004 , 
-4.728400000000006 , 
-26.55540000000005 , 
-35.57300000000009 , 
78.1493000000001 , 
-28.491699999999955 , 
-33.98879999999994 , 
-0.10959999999999392 , 
-30.212799999999998 , 
36.800099999999986 , 
-15.775299999999994 , 
-62.737199999999845 , 
-56.17749999999989 , 
-57.56919999999995 , 
48.76960000000001 , 
-34.602999999999945 , 
-71.10350000000012 , 
11.358799999999976 , 
-71.29090000000019 , 
-48.47699999999996 , 
-38.34450000000017 , 
17.54470000000005 , 
49.18129999999998 , 
102.09229999999982 , 
5.123300000000031 , 
-28.52510000000007 , 
28.793899999999972 , 
-32.368200000000016 , 
7.149099999999937 , 
-23.044400000000053 , 
16.53940000000001 , 
30.757600000000032 , 
]

[
46.29989999999994 , 
15.34430000000003 , 
19.834500000000023 , 
-42.37600000000007 , 
20.77119999999995 , 
-1.2845999999999933 , 
-9.555699999999938 , 
32.68670000000002 , 
86.00640000000011 , 
-80.41510000000035 , 
-32.507700000000014 , 
-6.488399999999986 , 
-62.795100000000105 , 
9.68859999999999 , 
-35.57660000000006 , 
39.12749999999999 , 
-29.612100000000034 , 
-23.370499999999964 , 
-13.867200000000018 , 
-19.9245 , 
-45.81629999999983 , 
30.79519999999999 , 
2.499900000000038 , 
-15.877100000000004 , 
34.76279999999999 , 
52.124199999999895 , 
-22.645000000000064 , 
-66.50549999999986 , 
38.20019999999993 , 
-8.201999999999982 , 
21.226799999999944 , 
22.589799999999986 , 
32.82939999999998 , 
14.357900000000047 , 
35.5811 , 
-14.758999999999961 , 
-11.344799999999983 , 
-74.28759999999998 , 
24.782200000000167 , 
26.3907 , 
-11.633900000000098 , 
-22.15940000000002 , 
34.62650000000006 , 
-21.698100000000032 , 
-26.21739999999992 , 
25.339099999999995 , 
2.7927999999999544 , 
-31.066800000000057 , 
20.796099999999985 , 
7.368800000000037 , 
48.290499999999895 , 
-38.10929999999986 , 
-83.99929999999985 , 
-11.83990000000006 , 
-25.295200000000026 , 
3.947299999999978 , 
16.44799999999999 , 
-21.627899999999958 , 
46.940100000000015 , 
12.272000000000027 , 
-62.47570000000022 , 
23.984600000000015 , 
2.418600000000061 , 
7.020899999999999 , 
]

[
13.716999999999953 , 
-15.549299999999912 , 
6.620799999999989 , 
-9.553300000000055 , 
37.91359999999996 , 
55.743799999999986 , 
55.412000000000134 , 
-39.85219999999993 , 
40.46270000000018 , 
-30.722000000000026 , 
13.223800000000004 , 
26.726900000000025 , 
-16.071199999999934 , 
-45.2148999999998 , 
-41.488099999999896 , 
-44.0773 , 
36.6534 , 
7.0402999999999825 , 
36.7031 , 
-57.200100000000035 , 
-19.32650000000003 , 
39.25979999999991 , 
33.202400000000004 , 
-27.398700000000055 , 
-37.1594 , 
4.505399999999952 , 
-41.75459999999997 , 
40.05409999999998 , 
23.38160000000002 , 
-13.675999999999961 , 
39.12879999999997 , 
-65.7057 , 
35.13720000000008 , 
-25.090600000000055 , 
-40.96119999999995 , 
17.665999999999865 , 
6.408199999999995 , 
33.84160000000008 , 
1.3170999999999857 , 
11.960200000000018 , 
38.86559999999995 , 
-18.523100000000035 , 
15.449499999999993 , 
-2.3655000000000355 , 
-18.94449999999996 , 
154.8184000000002 , 
-34.87619999999989 , 
-29.688799999999762 , 
48.956900000000125 , 
-31.742099999999965 , 
3.531900000000043 , 
-19.986800000000056 , 
-35.35929999999997 , 
75.37349999999994 , 
-18.947599999999966 , 
22.64799999999999 , 
62.01990000000004 , 
-4.904699999999931 , 
-1.8621000000000316 , 
-10.032099999999978 , 
20.645199999999978 , 
-6.344199999999973 , 
70.48629999999999 , 
18.311400000000074 , 
]

[
44.31530000000002 , 
-20.926699999999997 , 
-4.9868999999999115 , 
33.45839999999995 , 
-10.225100000000024 , 
27.75039999999993 , 
21.352399999999978 , 
3.2020000000000586 , 
30.6270000000001 , 
14.357799999999981 , 
63.19000000000011 , 
6.3290999999999435 , 
14.830699999999979 , 
-50.66589999999993 , 
-15.872899999999994 , 
-20.719999999999995 , 
35.10540000000008 , 
26.05530000000001 , 
-14.720299999999952 , 
0.31979999999997144 , 
12.22660000000012 , 
-0.3067000000000618 , 
-71.14760000000008 , 
-22.325699999999976 , 
-26.17489999999999 , 
-37.30130000000002 , 
25.841700000000028 , 
28.079099999999926 , 
29.12620000000007 , 
-57.349400000000166 , 
-74.17079999999999 , 
-6.657800000000058 , 
120.52440000000021 , 
38.17760000000012 , 
-16.15019999999998 , 
34.86810000000013 , 
-29.587699999999888 , 
10.644600000000016 , 
41.983400000000046 , 
3.6729999999999796 , 
-25.933100000000042 , 
25.5092000000001 , 
25.568999999999956 , 
3.7433000000000236 , 
-37.33870000000002 , 
-32.816900000000004 , 
-23.305499999999995 , 
32.81830000000003 , 
27.230600000000052 , 
58.10839999999992 , 
-29.29010000000006 , 
40.5807999999999 , 
-8.201800000000006 , 
-73.5537 , 
-31.47179999999998 , 
23.680699999999966 , 
-45.11180000000005 , 
36.54200000000005 , 
-65.7468000000002 , 
35.207799999999985 , 
-29.544500000000042 , 
19.65780000000002 , 
73.46100000000001 , 
6.773300000000003 , 
]

[
10.72330000000001 , 
-8.258799999999914 , 
-38.35499999999996 , 
58.93339999999982 , 
34.27799999999989 , 
44.63519999999991 , 
-30.303499999999953 , 
26.681300000000007 , 
-30.006099999999883 , 
24.5689000000001 , 
-64.35690000000011 , 
7.775799999999916 , 
-60.6539000000001 , 
33.3708 , 
34.27590000000003 , 
23.19259999999999 , 
-55.33579999999984 , 
-16.222299999999972 , 
3.7443000000000124 , 
34.765400000000035 , 
-36.81479999999986 , 
-82.70120000000017 , 
42.36010000000004 , 
-23.592299999999945 , 
29.41409999999998 , 
1.072300000000011 , 
24.259399999999985 , 
-45.580500000000185 , 
-64.802 , 
7.626699999999987 , 
-13.151699999999959 , 
-1.9685000000000672 , 
-35.992999999999924 , 
-12.033199999999951 , 
33.23470000000003 , 
-17.80429999999996 , 
-44.22980000000008 , 
-62.53239999999999 , 
-57.26449999999985 , 
-30.8269 , 
-29.959600000000066 , 
-37.27180000000003 , 
-12.023199999999983 , 
-24.18910000000002 , 
-54.282300000000255 , 
-54.41650000000023 , 
-29.276899999999987 , 
78.87640000000023 , 
22.07310000000002 , 
8.252600000000065 , 
22.554600000000004 , 
23.78880000000004 , 
123.13309999999994 , 
-19.153400000000016 , 
-55.80600000000004 , 
56.34110000000012 , 
-61.700300000000176 , 
-6.393800000000004 , 
-28.601400000000005 , 
86.58549999999998 , 
17.607699999999994 , 
8.277800000000004 , 
50.02300000000001 , 
37.65430000000001 , 
]

[
-44.69320000000012 , 
-23.233900000000027 , 
-9.61290000000012 , 
41.25689999999995 , 
-39.320900000000016 , 
12.847700000000021 , 
32.65609999999988 , 
-15.455900000000183 , 
-48.225399999999965 , 
6.585899999999993 , 
-29.36489999999997 , 
9.320600000000022 , 
1.1087999999999854 , 
-18.186300000000045 , 
16.91030000000001 , 
7.955699999999984 , 
-26.22030000000002 , 
-45.18660000000003 , 
21.075300000000148 , 
41.26480000000003 , 
-13.094700000000056 , 
-53.34979999999992 , 
7.031999999999988 , 
38.688199999999945 , 
-71.35060000000016 , 
-29.36459999999996 , 
6.795899999999982 , 
36.46800000000002 , 
46.745599999999975 , 
-25.12769999999999 , 
31.293400000000016 , 
24.38219999999992 , 
-47.84440000000018 , 
36.86970000000004 , 
-2.2232999999999543 , 
32.24119999999992 , 
5.867500000000033 , 
-24.712100000000035 , 
-32.356499999999954 , 
31.245399999999975 , 
-0.9692000000000013 , 
-68.34640000000003 , 
22.407300000000063 , 
27.853499999999965 , 
33.122799999999934 , 
-28.903300000000026 , 
55.28060000000008 , 
40.622899999999994 , 
-44.64670000000001 , 
-69.92789999999984 , 
20.945999999999998 , 
38.17890000000007 , 
-14.335400000000073 , 
18.66869999999993 , 
16.38009999999998 , 
-84.11360000000028 , 
16.607200000000063 , 
8.0467 , 
-14.648099999999971 , 
-32.71609999999996 , 
-55.71199999999986 , 
-9.852799999999979 , 
-49.89940000000002 , 
-66.37950000000005 , 
]

[
-21.01350000000001 , 
-16.37060000000001 , 
-0.015100000000042857 , 
8.80499999999994 , 
41.2569 , 
63.54830000000008 , 
19.211200000000044 , 
-43.74680000000014 , 
7.4685000000000485 , 
69.62739999999997 , 
-2.9066999999999736 , 
-13.819500000000012 , 
-12.133000000000067 , 
-60.4658 , 
60.45769999999999 , 
-2.4102999999999546 , 
48.94439999999999 , 
-28.920000000000055 , 
11.539900000000006 , 
12.881400000000092 , 
-19.994299999999974 , 
-32.97999999999987 , 
39.05749999999992 , 
27.06199999999991 , 
15.304600000000008 , 
-39.733899999999984 , 
-27.960900000000045 , 
-34.31500000000001 , 
-37.33499999999987 , 
-84.33870000000012 , 
18.36260000000008 , 
43.12749999999998 , 
29.62849999999995 , 
37.16840000000001 , 
59.387800000000034 , 
-58.650799999999876 , 
-18.117700000000085 , 
10.4201 , 
-31.62649999999997 , 
-52.01869999999995 , 
15.671999999999931 , 
45.094500000000004 , 
-40.57930000000012 , 
3.7502999999999864 , 
2.7742000000001252 , 
21.940299999999965 , 
80.08310000000026 , 
28.817099999999968 , 
-0.2454999999999652 , 
5.089799999999941 , 
-0.8033000000000354 , 
55.856900000000124 , 
46.9396 , 
-27.78299999999996 , 
72.65420000000003 , 
-47.24589999999996 , 
71.74730000000001 , 
19.27069999999999 , 
-23.251900000000028 , 
90.24649999999978 , 
-67.45410000000004 , 
-6.797499999999996 , 
9.4511 , 
-13.788899999999945 , 
]

[
-63.29030000000004 , 
17.810399999999966 , 
-11.141399999999951 , 
-1.6045000000000291 , 
-68.9292999999999 , 
-51.32330000000009 , 
41.016100000000044 , 
-11.41199999999999 , 
-56.343300000000134 , 
12.894800000000041 , 
-64.67509999999994 , 
7.4757 , 
-21.574200000000015 , 
-81.14429999999989 , 
52.26389999999981 , 
-26.491900000000083 , 
-40.922700000000276 , 
51.18490000000011 , 
-3.870200000000048 , 
-36.58780000000004 , 
-15.865099999999913 , 
62.37549999999989 , 
17.80750000000004 , 
69.42359999999985 , 
47.11050000000001 , 
-50.083899999999964 , 
19.242200000000036 , 
-43.01340000000005 , 
-52.399899999999946 , 
-28.85530000000004 , 
-10.817400000000035 , 
31.172899999999977 , 
1.6836999999999802 , 
-72.26619999999994 , 
33.67259999999997 , 
-44.97809999999992 , 
35.213700000000024 , 
26.62219999999993 , 
-12.193700000000026 , 
-23.65040000000005 , 
14.980100000000004 , 
61.660600000000144 , 
62.99969999999991 , 
-1.6805999999999663 , 
51.534599999999976 , 
18.840100000000007 , 
-10.38100000000028 , 
-6.617700000000036 , 
17.69700000000004 , 
-0.11459999999996404 , 
4.211699999999994 , 
-33.742300000000014 , 
-37.78280000000004 , 
-19.884899999999877 , 
-2.144999999999984 , 
1.9983000000000197 , 
-14.716300000000018 , 
10.053400000000018 , 
-34.014099999999964 , 
-47.920300000000104 , 
25.149400000000014 , 
-0.20449999999996862 , 
11.625400000000024 , 
16.192999999999987 , 
]

[
-15.644199999999948 , 
-13.208700000000022 , 
-34.023099999999864 , 
47.42399999999998 , 
32.17210000000006 , 
25.165099999999935 , 
9.267700000000087 , 
6.405699999999974 , 
-26.65550000000004 , 
-78.1877999999998 , 
45.8062 , 
-54.929400000000065 , 
-9.875199999999996 , 
-44.261000000000045 , 
-45.92739999999999 , 
98.74650000000007 , 
-14.643899999999993 , 
-0.6412000000000123 , 
-38.25920000000002 , 
6.836099999999985 , 
-48.83799999999993 , 
-44.083199999999955 , 
-6.768399999999966 , 
38.34690000000004 , 
-36.460099999999954 , 
40.75479999999995 , 
-19.219699999999982 , 
55.470999999999954 , 
-16.96820000000003 , 
-18.29840000000002 , 
-25.541499999999985 , 
47.690400000000004 , 
-0.5777000000000256 , 
-33.10150000000002 , 
5.842800000000071 , 
-16.462599999999952 , 
9.455799999999993 , 
-3.2038000000000117 , 
-1.9420999999999844 , 
19.192899999999902 , 
-38.251600000000074 , 
12.963700000000058 , 
3.2444000000000335 , 
56.10600000000002 , 
26.76200000000002 , 
12.864599999999983 , 
-56.553600000000024 , 
-65.98910000000002 , 
27.643500000000074 , 
8.633700000000033 , 
9.506699999999988 , 
-51.613599999999956 , 
-76.00959999999996 , 
-4.557900000000028 , 
29.22619999999992 , 
-20.385899999999978 , 
15.488800000000051 , 
-31.70429999999996 , 
-41.86329999999998 , 
-14.584799999999982 , 
12.076500000000017 , 
6.9531000000000045 , 
3.5538999999999095 , 
3.363000000000019 , 
]

[
-9.940500000000023 , 
-18.841400000000025 , 
-46.077799999999975 , 
5.765499999999931 , 
-31.4866 , 
29.139299999999967 , 
-23.503900000000034 , 
-5.7802000000000655 , 
20.10909999999999 , 
30.813300000000055 , 
-32.70169999999995 , 
-40.72250000000005 , 
57.13310000000012 , 
-36.60300000000004 , 
-11.439799999999986 , 
36.52370000000006 , 
58.633199999999974 , 
92.38419999999988 , 
58.62120000000003 , 
-4.588500000000017 , 
-35.23199999999992 , 
-28.94639999999993 , 
-7.629200000000156 , 
-21.86149999999999 , 
75.80859999999966 , 
28.15420000000004 , 
-17.365999999999946 , 
-24.253200000000003 , 
28.92840000000001 , 
22.430100000000003 , 
12.334999999999916 , 
-76.3545 , 
-2.7017999999999907 , 
-28.333799999999965 , 
-16.61859999999996 , 
2.7435000000000347 , 
-67.63400000000006 , 
-45.82179999999999 , 
-23.20670000000001 , 
-51.71619999999999 , 
36.87449999999993 , 
30.91530000000002 , 
14.371299999999968 , 
73.10159999999976 , 
-46.23540000000002 , 
12.005900000000004 , 
-49.29430000000006 , 
25.539900000000014 , 
66.86439999999983 , 
-32.492099999999894 , 
55.03560000000003 , 
-49.0661999999999 , 
1.1598999999999438 , 
5.697399999999982 , 
-20.133199999999984 , 
72.9709000000001 , 
-48.795600000000206 , 
37.551100000000076 , 
8.2127 , 
10.770100000000006 , 
6.224900000000072 , 
47.229100000000095 , 
10.563800000000002 , 
-48.972999999999985 , 
]

[
9.607400000000018 , 
-4.279599999999869 , 
24.829899999999967 , 
5.088500000000059 , 
10.694400000000057 , 
-18.73649999999993 , 
-28.71519999999976 , 
-46.537499999999895 , 
-9.988600000000012 , 
-12.877500000000088 , 
-38.918499999999916 , 
-17.125800000000005 , 
-41.13799999999993 , 
69.81439999999999 , 
-31.45979999999996 , 
-3.883900000000012 , 
61.735700000000044 , 
42.01009999999994 , 
-22.333799999999975 , 
-21.946800000000042 , 
-67.22809999999984 , 
22.306899999999978 , 
-6.196099999999973 , 
82.97669999999984 , 
-0.8888999999999982 , 
-52.59959999999992 , 
6.019700000000091 , 
-18.90410000000002 , 
-70.64580000000012 , 
-42.72739999999998 , 
10.205499999999969 , 
18.790799999999997 , 
-61.08010000000008 , 
-22.633900000000043 , 
12.745599999999937 , 
-17.39799999999997 , 
-18.651799999999984 , 
-35.432300000000076 , 
13.002000000000008 , 
58.10470000000004 , 
15.948800000000015 , 
-44.594200000000015 , 
1.7461999999999462 , 
85.38860000000015 , 
3.4799000000000477 , 
13.61590000000012 , 
-10.929099999999996 , 
34.770999999999994 , 
-53.896500000000124 , 
9.838999999999988 , 
-14.305100000000072 , 
8.537900000000036 , 
-21.63539999999994 , 
18.134600000000013 , 
80.8166000000002 , 
12.33580000000001 , 
-56.35769999999987 , 
36.9681 , 
31.99300000000004 , 
9.931000000000083 , 
-57.40859999999999 , 
16.58269999999999 , 
77.25630000000005 , 
-62.44050000000004 , 
]

[
7.7190000000000305 , 
11.464299999999957 , 
-46.228899999999946 , 
-5.839700000000004 , 
-28.381500000000152 , 
-9.3175 , 
-7.504300000000027 , 
-33.53480000000006 , 
44.420000000000016 , 
-35.895900000000054 , 
42.22740000000013 , 
49.5038999999999 , 
-3.9994000000000334 , 
-42.22929999999998 , 
-13.456199999999992 , 
-86.26179999999994 , 
5.919000000000082 , 
-62.61309999999997 , 
45.57619999999992 , 
83.9752000000001 , 
41.60389999999998 , 
26.32240000000004 , 
-14.315100000000065 , 
-28.95060000000007 , 
1.1996000000000522 , 
65.28980000000011 , 
7.713900000000006 , 
4.24040000000003 , 
31.81599999999994 , 
-37.797600000000074 , 
90.69919999999952 , 
-67.63130000000001 , 
-10.640900000000043 , 
-18.290300000000055 , 
-48.481499999999976 , 
0.044399999999958695 , 
-63.246599999999894 , 
18.710399999999968 , 
-30.019600000000036 , 
-51.08349999999974 , 
10.606800000000025 , 
-54.60480000000003 , 
16.160999999999998 , 
15.640400000000067 , 
16.147599999999933 , 
-21.555600000000045 , 
70.20559999999993 , 
10.153699999999953 , 
52.804099999999835 , 
11.217600000000001 , 
35.05329999999999 , 
-54.523399999999874 , 
-15.049399999999952 , 
-45.183200000000035 , 
-13.711199999999907 , 
0.342400000000048 , 
-38.35470000000002 , 
-84.92390000000009 , 
-21.06300000000004 , 
43.54270000000005 , 
27.214800000000043 , 
12.405100000000013 , 
-27.473600000000022 , 
32.160799999999995 , 
]

[
21.98179999999999 , 
-7.800099999999972 , 
46.769199999999955 , 
-45.16760000000002 , 
8.416399999999985 , 
26.824599999999947 , 
-0.613699999999999 , 
-4.7744000000000355 , 
-18.218000000000018 , 
95.6510999999998 , 
-34.48120000000001 , 
-19.230199999999947 , 
15.704500000000031 , 
-27.90860000000005 , 
46.86930000000009 , 
15.143600000000056 , 
6.3248000000000015 , 
24.881900000000044 , 
9.867600000000081 , 
28.15420000000006 , 
8.521600000000003 , 
116.79630000000022 , 
-64.06749999999997 , 
-29.556799999999956 , 
0.685200000000018 , 
74.96640000000014 , 
23.840899999999984 , 
30.030900000000052 , 
-86.56279999999984 , 
26.473100000000006 , 
33.390200000000085 , 
7.07970000000007 , 
0.29810000000000203 , 
-15.730899999999918 , 
55.05220000000003 , 
-11.482000000000085 , 
12.452599999999986 , 
-45.44430000000001 , 
-5.39159999999999 , 
-12.713800000000067 , 
18.876099999999997 , 
49.824199999999884 , 
-22.164200000000076 , 
55.633099999999985 , 
67.47009999999983 , 
55.365099999999885 , 
5.401999999999999 , 
-41.776099999999886 , 
44.04450000000009 , 
-7.160199999999983 , 
52.49919999999994 , 
14.760999999999987 , 
44.903400000000026 , 
-38.26070000000004 , 
-29.60310000000001 , 
-10.957699999999909 , 
-16.649699999999953 , 
-36.60409999999996 , 
-17.73979999999998 , 
-10.104199999999967 , 
-24.926600000000047 , 
-33.48239999999991 , 
14.364800000000004 , 
30.76009999999991 , 
]

[
13.395099999999932 , 
51.11129999999994 , 
8.763000000000048 , 
-73.4243999999998 , 
38.42200000000009 , 
20.598500000000005 , 
4.96809999999999 , 
2.4567999999999937 , 
-22.69030000000005 , 
108.23460000000016 , 
-71.35199999999986 , 
-10.873600000000026 , 
35.876800000000074 , 
12.004599999999963 , 
-12.177099999999811 , 
7.974499999999977 , 
-51.24350000000014 , 
-82.56329999999997 , 
14.87599999999998 , 
-36.91669999999998 , 
37.87999999999995 , 
34.55850000000006 , 
-53.436400000000006 , 
0.19240000000001 , 
-8.739999999999991 , 
-18.13050000000001 , 
-34.531500000000115 , 
10.371400000000072 , 
8.8942 , 
-24.265300000000025 , 
36.00349999999991 , 
-1.6378000000000386 , 
-30.65250000000017 , 
-29.55620000000001 , 
41.91019999999994 , 
-48.65799999999994 , 
43.09050000000007 , 
-37.68950000000006 , 
30.895199999999992 , 
-0.11289999999998213 , 
91.00089999999993 , 
-57.49939999999999 , 
14.821100000000039 , 
46.35909999999999 , 
27.435600000000065 , 
-29.22770000000001 , 
27.23610000000004 , 
53.36869999999987 , 
38.87069999999996 , 
-18.05359999999998 , 
0.22769999999998847 , 
29.722200000000136 , 
15.921799999999923 , 
-51.85920000000017 , 
18.537500000000012 , 
1.3856000000000281 , 
-27.958099999999945 , 
21.638399999999997 , 
-29.512500000000006 , 
20.812800000000024 , 
-62.5942999999999 , 
-25.236799999999985 , 
8.247500000000173 , 
-9.967899999999954 , 
]

[
25.3233 , 
0.3600000000000709 , 
-9.658600000000028 , 
19.648300000000066 , 
-7.312099999999957 , 
1.159900000000011 , 
61.01120000000016 , 
-26.967900000000057 , 
-54.73439999999996 , 
-9.763200000000047 , 
-34.18959999999991 , 
-53.87759999999996 , 
9.033699999999998 , 
56.640499999999854 , 
-32.18049999999999 , 
47.14800000000003 , 
-30.296900000000093 , 
0.3110999999999699 , 
-50.588900000000095 , 
38.977700000000134 , 
15.986399999999968 , 
36.63640000000003 , 
64.71990000000008 , 
-10.230900000000037 , 
71.43800000000005 , 
20.994699999999888 , 
59.76320000000022 , 
17.65029999999997 , 
-50.763499999999986 , 
-40.43019999999988 , 
-61.05949999999993 , 
22.513900000000064 , 
-9.24269999999996 , 
29.65719999999976 , 
-20.32109999999995 , 
3.328300000000015 , 
73.35940000000002 , 
54.24840000000003 , 
15.934800000000006 , 
1.4688999999999517 , 
50.90040000000012 , 
-32.26390000000003 , 
13.292100000000008 , 
-36.22729999999999 , 
37.56040000000003 , 
-49.3894000000001 , 
19.585999999999917 , 
-11.707099999999928 , 
-7.311399999999993 , 
-28.165700000000037 , 
-18.25150000000009 , 
-65.5504000000001 , 
-1.7508999999999546 , 
-34.56069999999991 , 
-32.8438 , 
31.166100000000014 , 
6.466699999999985 , 
-33.87969999999989 , 
-15.675999999999965 , 
16.799899999999933 , 
22.44900000000001 , 
-34.08030000000014 , 
-0.040199999999949276 , 
11.358300000000078 , 
]

[
-18.529400000000035 , 
74.87529999999978 , 
6.97929999999994 , 
12.653400000000037 , 
28.350899999999992 , 
46.08699999999984 , 
-16.64099999999986 , 
-16.868900000000025 , 
44.07360000000008 , 
-3.421300000000059 , 
-11.210200000000025 , 
-30.139099999999935 , 
2.480400000000008 , 
3.3839000000000086 , 
30.213200000000054 , 
-11.256400000000017 , 
29.645799999999973 , 
29.070399999999896 , 
-54.5311999999999 , 
-8.8733999999999 , 
19.110300000000002 , 
-26.97929999999999 , 
-72.50249999999978 , 
-47.20309999999996 , 
14.439999999999987 , 
55.43260000000009 , 
-30.23289999999997 , 
34.42189999999995 , 
-33.79759999999998 , 
34.58649999999995 , 
9.013299999999996 , 
1.2559999999999687 , 
-16.81410000000004 , 
33.0261000000001 , 
-21.470199999999988 , 
0.6462999999999114 , 
27.917299999999955 , 
28.554099999999956 , 
48.07190000000002 , 
-48.71420000000003 , 
2.6062000000000003 , 
45.1937 , 
17.37710000000006 , 
-10.71420000000003 , 
51.242200000000004 , 
47.67630000000005 , 
30.449400000000068 , 
-53.51129999999999 , 
40.67720000000009 , 
-56.35189999999997 , 
6.9649000000000285 , 
-50.70470000000022 , 
-0.9363999999999787 , 
-5.216799999999998 , 
-38.944300000000055 , 
-53.74270000000007 , 
-0.49539999999998946 , 
-11.29969999999997 , 
56.04630000000007 , 
-18.488300000000002 , 
-67.78230000000009 , 
11.673700000000018 , 
-39.688900000000075 , 
-22.516499999999873 , 
]

[
59.63069999999995 , 
-87.2530999999997 , 
-45.891700000000064 , 
16.307499999999887 , 
10.351699999999994 , 
33.714299999999895 , 
51.17789999999984 , 
28.566200000000027 , 
-39.248500000000085 , 
-7.378599999999946 , 
49.48380000000008 , 
-1.574200000000036 , 
29.917900000000028 , 
14.360000000000012 , 
30.70369999999999 , 
4.443399999999917 , 
22.3982 , 
-58.089800000000245 , 
-22.0101000000001 , 
59.90730000000022 , 
31.425599999999996 , 
-35.15820000000005 , 
50.70009999999997 , 
-38.004299999999986 , 
-8.184400000000013 , 
-30.07479999999997 , 
-23.399400000000032 , 
-5.4888999999999735 , 
-7.271999999999913 , 
-57.95869999999996 , 
-19.120700000000042 , 
30.79129999999998 , 
-8.791699999999988 , 
37.444999999999965 , 
87.59849999999979 , 
-81.11119999999988 , 
-32.33579999999999 , 
-27.5585 , 
-8.856299999999951 , 
32.50130000000006 , 
13.67790000000006 , 
-72.99169999999985 , 
-26.199100000000154 , 
-5.486699999999975 , 
-12.765399999999994 , 
2.315499999999979 , 
6.975799999999972 , 
33.23810000000006 , 
15.371800000000025 , 
95.92789999999998 , 
-17.894200000000016 , 
35.39369999999979 , 
-43.02629999999996 , 
40.9753 , 
28.525000000000034 , 
-0.9990999999999991 , 
3.1465999999999603 , 
-4.414299999999935 , 
22.147200000000026 , 
-5.689699999999981 , 
-12.252799999999842 , 
-23.711299999999927 , 
-2.9388999999999896 , 
14.21840000000008 , 
]

[
-56.70540000000006 , 
-34.23320000000016 , 
-29.388800000000014 , 
23.01090000000002 , 
-30.651799999999966 , 
-13.515000000000018 , 
19.999699999999834 , 
-5.355799999999981 , 
65.5399000000001 , 
37.6549000000001 , 
14.506999999999977 , 
-7.537199999999923 , 
-12.157100000000034 , 
55.97570000000005 , 
57.87650000000009 , 
-19.78960000000004 , 
-44.31209999999978 , 
-25.57909999999985 , 
31.60879999999998 , 
22.340800000000012 , 
41.77770000000006 , 
-4.685199999999956 , 
-40.887800000000055 , 
6.766200000000017 , 
-48.50179999999997 , 
42.58890000000005 , 
-26.91880000000011 , 
5.782599999999995 , 
-3.71219999999998 , 
28.130800000000008 , 
-26.26439999999979 , 
5.220300000000177 , 
-21.2122000000001 , 
0.8586999999999771 , 
30.932200000000023 , 
-25.149799999999992 , 
-86.32519999999995 , 
21.213099999999976 , 
-26.285100000000163 , 
-16.271100000000114 , 
20.195700000000034 , 
-29.713999999999977 , 
-25.860899999999965 , 
-25.100799999999786 , 
-3.7660000000000067 , 
-24.90809999999998 , 
-40.20750000000026 , 
8.13859999999999 , 
7.2281 , 
26.124300000000023 , 
-50.56310000000005 , 
-26.802799999999998 , 
75.4908 , 
63.33439999999988 , 
44.26659999999992 , 
4.516700000000004 , 
41.62809999999998 , 
-32.05240000000015 , 
50.605300000000085 , 
26.84319999999991 , 
5.922399999999984 , 
-8.456399999999874 , 
-7.575399999999976 , 
20.573000000000118 , 
]

[
28.579100000000086 , 
16.600799999999943 , 
3.592799999999901 , 
9.010499999999947 , 
-47.24019999999999 , 
69.50750000000019 , 
1.1586999999999814 , 
14.90999999999992 , 
-3.123500000000005 , 
-42.73629999999992 , 
-27.567799999999938 , 
-51.225899999999825 , 
-33.460899999999995 , 
29.50609999999998 , 
-59.66100000000028 , 
80.05589999999997 , 
-24.747099999999996 , 
15.297600000000019 , 
59.36549999999992 , 
-91.7408000000001 , 
-4.395599999999968 , 
15.535899999999934 , 
7.2524000000001125 , 
-53.9236 , 
-36.37380000000013 , 
46.01849999999981 , 
-11.979099999999923 , 
-22.921100000000038 , 
-66.76870000000018 , 
-3.4672000000000596 , 
-12.507900000000085 , 
-27.20389999999998 , 
-23.58360000000006 , 
-70.5266000000001 , 
23.811800000000023 , 
-66.1833 , 
-17.804799999999975 , 
-3.648999999999937 , 
-8.522399999999964 , 
-41.93319999999999 , 
-0.804700000000007 , 
16.170600000000018 , 
9.997399999999963 , 
40.00470000000017 , 
50.437800000000024 , 
-32.7408 , 
15.655800000000058 , 
36.779700000000005 , 
-25.85920000000005 , 
4.342100000000018 , 
-0.8731000000000045 , 
-14.166800000000041 , 
70.1387999999997 , 
54.63959999999979 , 
-8.232299999999952 , 
-3.758600000000006 , 
27.46699999999999 , 
-53.313900000000054 , 
52.448100000000316 , 
-5.771100000000005 , 
-16.94770000000002 , 
-45.957000000000036 , 
7.216899999999943 , 
32.22609999999995 , 
]

[
-9.779200000000017 , 
-24.30380000000001 , 
47.52110000000015 , 
43.33629999999996 , 
27.987000000000062 , 
32.048099999999984 , 
0.9734000000000147 , 
14.768300000000004 , 
-46.59870000000015 , 
50.65589999999996 , 
-6.457500000000006 , 
56.86910000000014 , 
-24.520399999999874 , 
-3.594899999999959 , 
-10.793000000000047 , 
-12.690599999999975 , 
-0.21639999999996956 , 
-25.96620000000002 , 
4.10520000000008 , 
-41.57240000000011 , 
25.104899999999983 , 
10.230000000000016 , 
10.251199999999994 , 
15.919000000000002 , 
-55.59029999999997 , 
59.51749999999995 , 
13.07220000000005 , 
13.615099999999964 , 
-15.441800000000006 , 
11.173399999999951 , 
18.400199999999952 , 
34.8394000000001 , 
-17.98100000000004 , 
-53.04830000000014 , 
44.67309999999997 , 
-52.05490000000001 , 
6.525299999999977 , 
65.24109999999997 , 
78.31439999999984 , 
-7.9977999999999545 , 
1.2337000000000373 , 
-4.460499999999991 , 
-2.3122999999999996 , 
-26.08070000000002 , 
57.585299999999954 , 
-16.922599999999974 , 
-1.439900000000042 , 
61.48330000000006 , 
6.093799999999977 , 
-35.76310000000009 , 
-12.650800000000002 , 
-62.870899999999864 , 
18.270199999999996 , 
22.658599999999982 , 
-35.33430000000016 , 
2.6895999999999254 , 
25.072799999999965 , 
-25.924400000000023 , 
-34.21060000000008 , 
-60.413699999999814 , 
-64.23149999999997 , 
17.29389999999997 , 
-23.134099999999858 , 
33.4033999999999 , 
]

[
22.854500000000037 , 
-27.60319999999998 , 
1.7413000000000478 , 
-30.202900000000184 , 
-97.3591000000001 , 
-22.078099999999896 , 
-63.072100000000106 , 
-84.15009999999995 , 
-20.72980000000004 , 
-38.63140000000017 , 
25.90709999999995 , 
19.881299999999985 , 
12.171000000000001 , 
22.04490000000001 , 
-76.18460000000016 , 
25.554500000000065 , 
-22.24179999999999 , 
-50.82450000000022 , 
-47.08949999999999 , 
-5.8260999999999825 , 
-19.65570000000007 , 
58.70729999999999 , 
54.918300000000144 , 
-33.4367 , 
-29.26999999999993 , 
-42.11219999999995 , 
8.910900000000053 , 
-2.265400000000036 , 
45.90890000000005 , 
-14.515699999999981 , 
16.887099999999982 , 
-1.4818000000000264 , 
58.76469999999995 , 
-34.7592 , 
71.85630000000015 , 
-20.273899999999987 , 
-16.049900000000022 , 
37.358200000000096 , 
107.18269999999991 , 
19.63029999999996 , 
21.12700000000001 , 
-19.724199999999993 , 
60.04139999999999 , 
9.09609999999997 , 
-0.5586999999999844 , 
-45.9418 , 
-24.921499999999984 , 
23.732899999999972 , 
-36.1634 , 
-39.73690000000003 , 
8.772400000000042 , 
-30.006199999999946 , 
-2.3384999999999923 , 
-10.597900000000047 , 
-10.526299999999974 , 
9.301600000000013 , 
-14.266399999999997 , 
-0.01979999999998605 , 
2.7696999999999754 , 
24.191800000000022 , 
-32.321299999999916 , 
27.319199999999935 , 
-19.001499999999968 , 
0.9549000000000172 , 
]

[
-27.113800000000023 , 
-19.759800000000045 , 
1.3370000000000402 , 
71.19469999999991 , 
22.19669999999998 , 
22.979499999999955 , 
-7.648199999999998 , 
23.735099999999985 , 
3.8973000000000346 , 
-8.159399999999998 , 
-43.887800000000105 , 
59.29870000000006 , 
-71.5874 , 
-39.02060000000013 , 
8.409300000000059 , 
46.63660000000003 , 
48.38269999999994 , 
27.154200000000014 , 
-6.975700000000027 , 
-7.507199999999994 , 
-42.68169999999996 , 
-53.24750000000012 , 
-65.39149999999995 , 
21.273200000000088 , 
4.4272000000000835 , 
-11.809899999999976 , 
-15.152999999999984 , 
24.57680000000005 , 
27.34819999999998 , 
-44.69650000000001 , 
-26.780199999999915 , 
-4.914599999999986 , 
30.510999999999928 , 
-14.131799999999982 , 
33.93519999999986 , 
-1.65409999999995 , 
-58.14030000000007 , 
6.140099999999953 , 
-33.804600000000086 , 
39.58840000000008 , 
2.98710000000001 , 
51.84879999999999 , 
15.899600000000031 , 
-17.875199999999985 , 
-9.658699999999957 , 
28.399699999999992 , 
-54.30909999999994 , 
-82.55100000000009 , 
-11.995400000000167 , 
-19.64079999999998 , 
-22.748400000000057 , 
25.854299999999963 , 
-12.088700000000001 , 
27.429600000000104 , 
114.61900000000024 , 
38.17909999999988 , 
-5.568999999999958 , 
72.21029999999999 , 
-19.69679999999997 , 
37.24180000000006 , 
-28.626500000000007 , 
-40.64929999999978 , 
15.860300000000027 , 
21.23499999999995 , 
]

[
52.93839999999996 , 
-102.66240000000022 , 
29.288199999999996 , 
16.75180000000006 , 
8.865399999999871 , 
12.744699999999993 , 
-29.27380000000007 , 
58.362099999999955 , 
-12.876999999999903 , 
-5.998900000000043 , 
-38.422999999999924 , 
0.26860000000003753 , 
-48.6317000000001 , 
-17.768999999999938 , 
-15.5307999999999 , 
0.4463000000000469 , 
-41.66070000000002 , 
-54.449499999999986 , 
8.25570000000001 , 
11.849799999999973 , 
-39.04510000000012 , 
-58.991199999999935 , 
-2.114699999999998 , 
39.66859999999989 , 
9.608399999999993 , 
-63.17679999999993 , 
20.183699999999966 , 
-32.68430000000011 , 
-52.98529999999991 , 
32.21379999999992 , 
11.573400000000007 , 
36.91459999999997 , 
55.333799999999826 , 
12.74949999999991 , 
-23.911400000000047 , 
12.89009999999995 , 
19.581000000000028 , 
38.79440000000002 , 
-28.3156 , 
27.178899999999846 , 
66.80969999999995 , 
-22.899799999999924 , 
71.01669999999999 , 
28.34859999999997 , 
-4.457499999999993 , 
-57.41649999999991 , 
17.948100000000053 , 
5.29260000000001 , 
1.0643000000000078 , 
-4.376099999999919 , 
-2.5387000000000643 , 
23.333899999999982 , 
3.0757000000000407 , 
-37.114199999999904 , 
6.685400000000006 , 
-20.70900000000001 , 
31.82820000000004 , 
12.494200000000058 , 
-20.74060000000004 , 
-7.001999999999993 , 
17.15210000000001 , 
-33.151399999999995 , 
-20.703499999999995 , 
-7.210200000000021 , 
]

[
1.5424000000000375 , 
-80.94459999999975 , 
25.75509999999992 , 
2.916199999999966 , 
-18.33470000000005 , 
-12.034499999999955 , 
-16.728199999999962 , 
43.26240000000006 , 
4.64670000000009 , 
-34.433699999999945 , 
-0.6397000000000223 , 
-15.429500000000004 , 
27.947399999999973 , 
1.2888000000000017 , 
-32.330999999999946 , 
85.00340000000034 , 
15.153000000000029 , 
19.86169999999997 , 
-39.204700000000045 , 
-38.43700000000004 , 
-11.822399999999964 , 
-32.4867000000001 , 
-31.23279999999997 , 
-14.308299999999965 , 
11.681500000000057 , 
-79.98489999999991 , 
-18.730600000000027 , 
-11.253900000000135 , 
-13.884299999999943 , 
-22.55449999999996 , 
-26.012000000000015 , 
24.07360000000004 , 
-41.550899999999984 , 
-60.70800000000003 , 
-15.322700000000053 , 
23.085300000000053 , 
38.41749999999995 , 
36.16579999999996 , 
-25.52069999999999 , 
-51.516499999999965 , 
-4.764800000000056 , 
17.675099999999894 , 
24.48850000000001 , 
-30.00110000000006 , 
7.242700000000001 , 
-31.373499999999954 , 
14.93070000000003 , 
11.839699999999974 , 
-8.378599999999985 , 
99.9381000000002 , 
28.610300000000045 , 
-33.883899999999876 , 
-14.442200000000007 , 
-19.297500000000024 , 
-34.491099999999925 , 
-57.06900000000012 , 
-48.414200000000086 , 
43.503400000000106 , 
-28.57010000000003 , 
-35.417399999999944 , 
-26.317199999999946 , 
1.0976999999999273 , 
-9.631199999999954 , 
-16.615699999999944 , 
]

[
40.60639999999987 , 
-0.37539999999999574 , 
6.03229999999994 , 
-47.19319999999999 , 
45.417700000000096 , 
36.26349999999992 , 
24.131699999999967 , 
-10.915100000000047 , 
22.676100000000105 , 
8.248599999999982 , 
46.66289999999993 , 
-33.094299999999926 , 
45.26080000000014 , 
14.363899999999997 , 
8.400399999999957 , 
31.997600000000016 , 
2.7825000000000424 , 
25.609300000000047 , 
49.65440000000007 , 
-63.73869999999997 , 
-16.03360000000004 , 
-106.14159999999987 , 
2.0195000000000167 , 
-30.844100000000076 , 
-28.944199999999977 , 
-18.757199999999926 , 
15.00170000000002 , 
-23.666900000000027 , 
-34.05659999999996 , 
-9.874600000000015 , 
-5.56519999999998 , 
-24.092399999999987 , 
-2.584800000000028 , 
23.377999999999957 , 
-21.68800000000001 , 
9.569299999999972 , 
-86.33030000000004 , 
69.84309999999982 , 
7.480400000000015 , 
23.010600000000018 , 
82.05559999999988 , 
10.74699999999996 , 
-31.310300000000037 , 
-16.920799999999993 , 
-24.105900000000013 , 
22.031000000000024 , 
53.99610000000002 , 
-15.524900000000038 , 
-4.665899999999969 , 
47.992600000000095 , 
46.57219999999993 , 
70.54530000000035 , 
15.062700000000007 , 
10.036600000000016 , 
-15.491399999999995 , 
-53.56799999999994 , 
-34.09680000000009 , 
72.96190000000003 , 
44.373500000000014 , 
-47.71359999999993 , 
4.662799999999979 , 
-9.678200000000027 , 
-20.72160000000002 , 
34.13940000000002 , 
]

[
62.631599999999985 , 
-20.782599999999984 , 
27.651999999999965 , 
41.74790000000004 , 
-17.228100000000058 , 
-8.128200000000017 , 
-65.61280000000008 , 
21.156499999999966 , 
30.725999999999935 , 
-6.024400000000041 , 
8.773000000000005 , 
78.51610000000015 , 
4.39629999999999 , 
12.76389999999999 , 
63.36899999999999 , 
-37.468100000000184 , 
6.279699999999964 , 
16.171999999999972 , 
-36.477099999999965 , 
-30.06240000000001 , 
-73.14420000000017 , 
-26.115000000000013 , 
-70.64819999999987 , 
35.37660000000006 , 
-8.066599999999971 , 
110.87260000000012 , 
-9.692599999999961 , 
56.82469999999982 , 
-34.128099999999975 , 
-18.258299999999924 , 
26.606099999999973 , 
-24.864700000000063 , 
40.88769999999994 , 
21.056500000000103 , 
-19.036500000000004 , 
38.756999999999756 , 
41.3182999999999 , 
-5.998199999999989 , 
-3.8028000000000426 , 
35.95179999999981 , 
23.720800000000068 , 
23.626899999999946 , 
17.514799999999926 , 
-43.121900000000025 , 
-18.188499999999937 , 
4.327399999999991 , 
-42.73130000000003 , 
-3.7154999999999987 , 
-38.16520000000004 , 
-22.970599999999983 , 
12.376899999999925 , 
5.0973000000000415 , 
33.270599999999995 , 
-57.92089999999997 , 
7.002300000000005 , 
-67.72960000000013 , 
-1.9195999999999722 , 
68.98159999999999 , 
-12.852999999999973 , 
37.095000000000034 , 
36.04749999999992 , 
-14.641400000000083 , 
39.485000000000014 , 
26.382900000000006 , 
]